elements: [H, O]
E0: [0, 0]
deltaSplineBins: 0.001
embeddings:
  0: {ndensity: 2, FS_parameters: [1, 1, 1, 0.5], npoti: FinnisSinclairShiftedScaled, rho_core_cutoff: 100000, drho_core_cutoff: 250}
  1: {ndensity: 2, FS_parameters: [1, 1, 1, 0.5], npoti: FinnisSinclairShiftedScaled, rho_core_cutoff: 100000, drho_core_cutoff: 250}
bonds:
  [0, 0]: {nradmax: 6, lmax: 5, nradbasemax: 12, radbasename: ChebPow, radparameters: [5.25], radcoefficients: [[[-0.38811873023226623, -1.1926182811470727, 1.5015158204560182, 0.20157014836909826, -1.8104756790135108, 1.2149003133979204, 0.96479139207232767, -2.3916066840421024, 2.0676156441682028, -0.96347954331035657, 0.22376073165225271, -0.012715397331682912], [1.5206522894518342, 0.27394758496882693, -0.51128419492141641, -0.022645852261854907, 0.011584030276199123, 0.19660040746609081, 0.36464097147518393, -1.0990998470953515, 1.0825279764725977, -0.53532549746912039, 0.12206199165084314, -0.011126360447763592], [0.58141424690205157, -1.0339785728851409, -0.077379454149069965, 1.1569888868878706, -0.43174924877522486, -1.0263306335967741, 1.2330071599265262, 0.01687891245213324, -0.97428301723552335, 0.78786130596454784, -0.23994501468548463, 0.0067685495755359015], [1.2676147229610604, 0.044474244760944935, -0.57915394643426354, 0.094748241280107171, 0.60977151254176321, -0.50289671176248496, -0.2356704452859574, 0.84592185328795988, -0.89383460970566309, 0.51248533355876957, -0.1669177335695286, 0.019617083664207519], [-0.26198265693584527, -1.5876800134665918, 0.37994924196781432, 0.74322719505806023, 0.83454031718422661, 2.1568149616455217, 0.3554871900942545, -1.5537109073778621, 1.1450479583928697, -1.2804190625534972, 1.4460833420721415, -0.5347395094555889], [2.6863604412885271, 2.3614872053603939, -0.8424414640602047, -2.1920349587434678, 0.3078432720581335, 1.1463447434179286, -0.53846617876356107, -0.39936960578682579, 0.86047170968099751, -0.0043528811247224124, -0.57413427631060587, 0.26532830302751353]], [[1.1306660007272542, 1.5673716951361405, -1.6963700285874019, -0.0094541017049136547, 1.4886702630270858, -0.86965405040154831, -0.67742332033725594, 1.0756109481409122, -0.19038396613932967, -0.4743207631894385, 0.36977644224501005, -0.081899814850851085], [-0.78177387203898541, 0.24027638535727455, 0.58089739303298149, 0.12040772259842444, -0.64577682441695761, 0.2407499723533762, 0.14355888831501526, -0.13052745925061635, 0.10371614718380325, -0.13198356202256617, 0.08308499317431467, -0.014301101926290586], [-0.69493176758292152, 0.38235145131293768, 0.1303922551953747, -0.48613366735290697, 0.096382279903585694, 0.86285814310683751, -0.91814770675825963, -0.2242822509817855, 1.5647083002516493, -1.8195610692600488, 1.0418661963494216, -0.26621515626244086], [0.61828836639745088, 1.5133667468350236, -1.1596847521750342, -0.91517695192693027, 1.2827018917578765, 0.55406610907462817, -1.6197292611324483, 0.27248975182896945, 1.5328364023358418, -1.746086943277354, 0.86269869265248633, -0.17456894582200222], [0.023693352379415167, 2.2139791805623203, 1.2787914263549656, -2.2171246634801953, -2.3891852058529399, 2.2453154808741749, 1.2019421386567342, -3.0282234362729366, 0.57001218417824151, 1.9504138447974444, -1.6957678403808716, 0.39599746770302086], [0.23993785397480702, 1.8010122286018846, 1.5365721874188081, 1.9211197181632871, 0.72307445638722034, -1.5343441084414027, -1.6475886657393675, 1.0035712743914846, 2.0050149355472238, -0.38328049819810217, -1.405562813896613, 0.39175147857114767]], [[0.87784881526201941, 0.60728552582400952, -0.45875966089259335, -0.31076114559170609, 2.0050380901384748, -0.73480294738211871, -2.3398388265881938, 2.2368694446379811, 1.3449803183539588, -3.3618190584804797, 2.1761953022777649, -0.50394121813622883], [-0.55273656263555038, -0.63811149825464608, 1.3466156067533237, -0.015456396769903482, -0.95685816886509922, 0.30876015160442088, 0.83275411080473971, -0.93690092230070443, 0.23884885074490619, 0.23777018706004316, -0.22061914308473868, 0.053369564889621017], [-0.61532593318107975, -0.67780169638897392, 1.3879771680725286, 0.28772608425945512, -0.22386854498697051, 0.2146962752541613, -0.14232430161862947, -0.32311153647334928, 0.52941244748082072, -0.56957418751428268, 0.28729358922630899, -0.083173825133438156], [-0.25199698776200397, -0.46571753178987202, 0.8213457673342266, -0.055501291992237321, -0.37722059340918201, -0.14824341740891531, 0.59462525846253567, 0.47835220347994761, -0.33454838998363035, -1.1384203854673585, 1.5414200482280669, -0.61762969105905441], [0.0078141447866592224, -0.96215440589119916, -0.60239276707608125, 0.65409048713007312, 2.5654297367622783, 1.6595215254072637, 1.2548248842713963, 0.25308950607851849, -2.6527088913015779, 0.84005576386740011, 1.546219777414332, -0.87198575239297438], [-0.032195797883955185, -0.074892004194248407, 0.87839238246584517, -0.04878183260008162, 0.23331766350942343, 0.19305046450967617, -0.32458784876528779, -0.15699357864793392, 0.44513279183199866, -0.59160523913031227, 0.055290386481814682, 0.040577510520913927]], [[-0.85907560713471298, -1.4763440137359662, -0.026666451595415669, 2.3696315558637124, 0.3002714144233668, -1.8425943927302371, -1.2130356995938361, 2.1051008700492391, 1.1168782776624002, -3.1855083237488819, 1.8596405761249486, -0.31970901454156864], [0.98817698848460045, 1.6307507391922433, 0.71942957364110782, 1.5096747746214463, 0.23226552681366155, -1.1345371024529041, -0.78920436291319773, 0.24161940825917513, -0.48048238468975235, 0.94513492608021754, -1.6074590905233344, 1.2488392649347058], [-0.70910774610572602, -1.5164547057118722, -0.63241590345192478, 1.5162313619787193, -0.35885727408784129, -1.0030311274694343, 0.57901229311866442, 0.70931211115324688, -0.85645386188426209, 0.4281961116738312, -0.11344680640869259, 0.0084627854856559898], [-0.93422931834970202, -1.2113624580142783, 0.9567825028813588, 2.7790721367495377, -0.55569029308785045, -1.4107053258499775, 0.63200161922899456, 0.48294916730270165, -1.4217642828818879, 0.11921540276012803, 0.1526986855040203, -0.080618382751580051], [0.17264902075513233, 0.82353509740483966, 1.8142243223443919, 3.3839526299886384, 1.9220457368308272, 0.55529902735552483, -0.9915260205048656, -1.6667726213672585, -0.98562946705609256, 0.019127702660966903, -0.43970671954956586, 1.1801044784696919], [-0.73080667958180645, -0.89338922455664305, 0.20297439948218385, 0.99522899439549295, -0.52697614562538642, 0.32683928629718001, 0.039148941531376595, -0.69734200419402093, 0.60736620241759376, -0.41891763493797923, 0.35361452844945129, -0.13338025250980684]], [[-0.42071087119971395, -1.2364807630898798, -1.2068393152665637, 0.10900138531119347, 1.8772622812674333, -0.16438247331732594, -0.79042711960376821, 0.50899044372549906, 0.59755497151528514, -0.67315809911552837, 0.58547419012332247, -0.18949471479808352], [1.0111173325260951, 0.94803900268374197, -1.0600948662660028, -0.2587303331667371, 2.7395839109624083, -0.39147830448975707, -2.3348969417433247, 0.48947880320761594, 1.3486458072275782, -1.3714307048042311, 0.105023343808167, 0.38235207315238084], [-1.0716262304620268, -2.43485440185888, -2.1187486456003977, -1.0605175345760689, 0.66370268577587166, -0.00034441996912247947, -0.1631329785665678, 0.022853827700383945, 0.86672456387810681, 0.25187576477977991, -0.88393289791985719, 0.4308597690692364], [0.92658391822920283, 2.64614047317894, 3.360431566461096, 2.4563190772016794, 1.4063616519019446, -1.8407555530081021, -2.6940569141344399, -1.308561078276397, -0.0028552132517022794, -1.1816974269867313, -1.7083051501009265, 1.5233996350374928], [-0.24910956585429928, -0.34952343355136617, 0.17576764781887913, 0.29079848116966878, 0.51274550052324019, -0.60028269436993154, 0.38201185287621631, 0.46115192962586238, -0.50948894668006262, -0.11271255536789851, 0.63264872652775206, -0.29108965424944289], [0.16610159194615234, 0.23179308774067525, -0.28459395105739971, -0.62735045350025986, 1.0634961233208646, 0.39727152807183191, -0.6915101299003148, -0.50792824536098569, 0.92433358190154424, -0.86116078012969377, 0.56655173521384594, -0.15949756962757644]], [[-0.62842051673449806, -1.0432837646050221, -0.049213235066608414, 0.56337558727483572, -0.20475333614519028, 0.54558781456950678, 0.0058259703052279781, -0.48952790824859327, 0.058372590645284883, 0.96386210101385783, -0.9200382241287417, 0.34004809335584679], [-0.50050610763570957, 0.073684362754660795, 1.4148792299288104, 0.033732850760979788, -1.0932273968636845, 1.8881626200192989, 0.10882763855787114, -2.7255241822179612, 0.54601256622705274, 2.1583011841871542, -2.4323106488223627, 1.0763037173550247], [-0.92024639859263058, -1.970305374126192, -0.97331282084954074, 0.47284075067757519, -0.4790627687189587, -0.86016897807920145, -0.052807820957827441, 1.9832886666804128, -0.25966571167993946, -2.1143959868046966, 2.2417279096662304, -0.73843719228495197], [-0.2047657161650504, -0.25106569471054319, 0.70635377082590645, 2.0550905785254385, 1.8116876519426057, 0.65604313035026585, -1.7626538283092597, -0.78868516128994659, 0.42641790097424892, -0.17858630752168297, -0.48506579594168847, -0.096254043421984625], [0.2418071739601943, 0.79535962172618468, 0.86754447455058548, -0.20638028672346542, -1.3310998319760656, 0.25384241697477655, 0.79043072650586577, 0.57370854824338158, -1.1921993340725994, -1.2324183668585809, 1.7034042175478092, -0.49140282702157473], [0.61182058893381097, 1.0157983465839022, -0.20551450189402493, -1.42489588061362, -0.93302404051155374, 0.89557891744878859, -0.18494096855763123, 0.20567928446584263, 0.77346044811982329, -0.8173486485317305, 0.25978944835754053, 0.029406190316467289]]], prehc: 0, lambdahc: 0, rcut: 6, dcut: 0.01, rcut_in: 0, dcut_in: 0, inner_cutoff_type: distance}
  [0, 1]: {nradmax: 6, lmax: 4, nradbasemax: 11, radbasename: ChebPow, radparameters: [6.25], radcoefficients: [[[-2.5743963423732565, -1.7306422581958465, 5.1578271292488669, -1.5145830033505765, -4.3124360066660241, 6.0899487856494776, -3.7918935539919398, 0.5414065429713798, 1.1787227567300307, -0.9904499229405368, 0.28774654372098946], [2.220106205199587, 1.1380242349955596, -0.95874161399246016, 0.028742796457176846, 1.0691697676817176, -1.1160098446418742, -0.11018341925996007, 1.2307613912961053, -1.3057465161749653, 0.69895615084066542, -0.15306050169015786], [1.7357538282279505, 1.0309831380834336, -0.12895600182811806, -0.11384706560031493, 0.56547015740058648, -0.66447950678856882, -0.073604301159559724, 0.46947617858808377, -0.35619239470826747, 0.17389222440521906, -0.022228534387796144], [0.58194779139630093, 0.1647396733830026, 1.6751597035243131, 0.70097522555954117, -0.70886266824646149, 0.76054724889281833, -0.10757246284151958, -2.5788371084805872, 2.7706944647917009, -1.2879528780360687, 0.40887753690807738], [1.3946060298020186, 0.68848791762255068, 0.030835570343201169, -0.47666149648875439, 0.19189026816433721, 0.60736116417941699, -0.50884383162677582, -0.77298591898867797, 1.3397694259332233, -0.78346962970105205, 0.19777707716269563]], [[0.45926165416588438, 1.8198714300206797, -0.33260934388875157, -1.1442686797955888, 0.49835577839874728, 0.49346958040526256, -1.3217390836767136, 1.3741698974732621, -0.51292098764338112, -0.14415632152870242, 0.093228886686943124], [1.2993548916500024, 3.0056184511900756, -0.018418359242621508, -0.53682619044365609, 1.045886956472853, -0.48727321818200653, -1.6181018713130886, 3.1420998096006301, -2.9302937252554977, 1.5893088640517261, -0.36319185637405882], [1.1426517161158098, 3.3417867990068091, 1.0067296511633506, -0.52181758641154186, 0.45892669665256131, 0.11400716797081251, -2.1157993256660781, 2.3776757273593163, -1.5522335378047178, 0.81147811675073045, -0.15373266847150996], [0.90424130547955861, 2.111418985731413, -0.40091819284759833, -0.090262381370829078, 1.1996872799738783, -0.12360863922683588, -1.0930569434869009, -0.30166467472173097, 1.0364073289131777, -0.64819323433612897, 0.28203305054326266], [-0.053111675467887587, 0.81255057164850675, -0.2314658118176211, -0.12215009490353253, -0.0093623451211904511, 0.017415376841703922, -0.0024810408896610982, -0.0012066760553251918, 0.013390107152052511, 0.0093225006681469848, -0.015826903542016296]], [[3.920539263946758, 5.4888629319019646, 0.093800129222558482, -2.1332049616220257, 1.9488067745423017, -0.30040257256896935, -1.7077444477549357, 1.0354449141085702, 0.69164373378416477, -0.77319953608857628, 0.28794095930661373], [-0.40117875851223067, 0.72096158137209909, 3.8859835605578352, 0.87558230917369606, -2.4519972190292183, 0.026863739024240524, 2.3037532121411513, -2.3276342240507422, 0.55971003343540526, 0.48211721868096097, -0.22105539574367739], [-0.28870885847169742, 1.0398821387893256, 4.9550671110578248, 2.9947549892571326, -1.2149694419749142, -0.98638979373474223, 1.1155479037379707, -2.794998251898388, 1.1329339335068005, 0.7275673997328691, -0.20070917677379727], [-0.28653030747992425, -0.61262212406151617, 0.65771472504105977, 0.17759972095640886, 0.14135171851832304, -0.27022478463738486, -0.088543314618277955, 0.26956070995153947, -0.53218564834131732, 0.45539263198800228, -0.13033204834946985], [-0.042367271603220832, -0.17517996538881345, 0.65843591446666661, -0.31318335609406994, -0.095878083908484193, 0.030678582521767889, 0.027024093368143067, 0.014397080282184728, -0.0032182342850710687, -0.03190475916823042, 0.023225085653997987]], [[3.0670737095451774, 4.8114057337407585, -0.21473063646219462, -1.5725882005875422, 1.0416884692828678, 0.5152931534839843, -2.3920593636301253, 1.3982627497573628, 0.85953139097776643, -1.0193695626604893, 0.34425541001962229], [0.63767619485460869, 0.40262929559160821, -1.6284768523621811, -0.3589847253627188, 1.6230504027868486, 0.78853606988125069, -3.3312260294939469, -0.35108965124105823, 3.9602222401833873, -3.0162978510141905, 0.67728569688933304], [-0.82544767880717129, -1.4371980450130812, -0.099997936021489681, 1.5573614755996239, -2.0205191732014174, -4.1336945384783563, -1.0750344226569404, 2.487933577466575, -0.99896923865253628, 2.6202132035844645, -1.9638045212707393], [0.0019046558709890111, -0.051776839125527059, -0.28044385787904469, 0.47695603500079953, -0.30045338544984218, 0.074696960097746554, 0.040131075243489675, -0.048148139987200023, 0.0056784681925192895, 0.023981483070440162, -0.012411563519430133], [-0.02561216402484141, -0.10947175893726875, -0.2830657862886658, 0.53955247044517796, -0.3403929018274045, -0.026594994632270826, 0.074485777273576817, 0.016572721101674692, -0.025756388179452725, -0.026499301361662824, 0.025401058863641759]], [[-1.4833114295414591, -1.1835157763347783, 2.2006090717362365, 1.2956790488584402, -0.55886422589952589, 0.57932761358253271, 0.41986767979269352, -2.4766330605962961, 1.7830395627845184, 0.19294662364065562, -0.19717807094578388], [0.073639083194119478, 0.57175642888068567, 1.9672998628132483, 3.199131767075782, 2.7702041951636205, -1.4952338044020859, -2.1380864094438716, 0.268046865032815, 0.57409338052149461, -0.14235770694194436, 0.61021788304148372], [0.29908152737297028, 0.066075468931277345, -1.426241398049013, -2.2279468039774084, -0.14282014413197577, -0.30459247996021271, -0.87160149952764465, 0.31062992306128223, 2.6676729240017862, -2.1038124799593789, 0.48540517146353701], [0.028570941553708224, 0.080703533876170339, 0.032373749384364166, -0.27667042710858836, 0.40925699880804306, -0.30747782973377802, 0.1095842324962293, 0.02026242706078497, -0.037925798220723735, 0.020775044247924802, -0.0023998970769610055], [-0.0097735547372687828, -0.041553067397644902, -0.11779567601532268, -0.30864423904309246, 0.51112910344530149, -0.30130647937361865, 0.031616413390411484, 0.059251700334265363, -0.035624772716893426, -0.0270008993851081, 0.029977342703448748]], [[-0.74823300229660916, -1.1135996815738256, 0.54233594352710712, 1.7513121077566316, 0.40730685517150717, -0.0081991219023273623, -0.38389656909528197, -0.16833812127539438, -0.83652379626909279, 1.6550950765136854, -0.53701177973280612], [-0.9055673937443266, -1.2044014739829199, 1.0127371308602877, 2.4348005264259807, 0.83784368319558833, 0.65056034701253529, 0.77266293776182182, -0.072204835004951964, -3.9750754504914885, 2.8645180141654847, 0.59627143646705683], [-0.0096639438757743761, -0.002128073450492179, 0.063526854817000461, 0.051246856655985155, -0.28418796324639178, 0.38208510637178716, -0.27822383345213769, 0.11732407732584127, -0.002048977842884579, -0.029774562024752725, 0.0084222128165714946], [-0.0096572827264726525, -0.0021126133383029396, 0.063532932958195218, 0.05122492467262587, -0.28422959068286086, 0.38205124517578626, -0.27823904777794972, 0.11731306479487642, -0.0020745697495123052, -0.029831823661132701, 0.0083325626521503875], [0.001032220494363813, 0.0029764932563551435, -0.001630303438384207, -0.064704093533982487, -0.29375880053289999, 0.482224153520802, -0.29517322487087494, 0.061081916204879835, 0.042939073375110944, -0.030134022997152857, -0.00015699007826728843]]], prehc: 0, lambdahc: 0, rcut: 6, dcut: 0.01, rcut_in: 0, dcut_in: 0, inner_cutoff_type: distance}
  [1, 0]: {nradmax: 6, lmax: 4, nradbasemax: 11, radbasename: ChebPow, radparameters: [6.25], radcoefficients: [[[-2.5743963423732565, -1.7306422581958465, 5.1578271292488669, -1.5145830033505765, -4.3124360066660241, 6.0899487856494776, -3.7918935539919398, 0.5414065429713798, 1.1787227567300307, -0.9904499229405368, 0.28774654372098946], [2.220106205199587, 1.1380242349955596, -0.95874161399246016, 0.028742796457176846, 1.0691697676817176, -1.1160098446418742, -0.11018341925996007, 1.2307613912961053, -1.3057465161749653, 0.69895615084066542, -0.15306050169015786], [1.7357538282279505, 1.0309831380834336, -0.12895600182811806, -0.11384706560031493, 0.56547015740058648, -0.66447950678856882, -0.073604301159559724, 0.46947617858808377, -0.35619239470826747, 0.17389222440521906, -0.022228534387796144], [0.58194779139630093, 0.1647396733830026, 1.6751597035243131, 0.70097522555954117, -0.70886266824646149, 0.76054724889281833, -0.10757246284151958, -2.5788371084805872, 2.7706944647917009, -1.2879528780360687, 0.40887753690807738], [1.3946060298020186, 0.68848791762255068, 0.030835570343201169, -0.47666149648875439, 0.19189026816433721, 0.60736116417941699, -0.50884383162677582, -0.77298591898867797, 1.3397694259332233, -0.78346962970105205, 0.19777707716269563]], [[0.45926165416588438, 1.8198714300206797, -0.33260934388875157, -1.1442686797955888, 0.49835577839874728, 0.49346958040526256, -1.3217390836767136, 1.3741698974732621, -0.51292098764338112, -0.14415632152870242, 0.093228886686943124], [1.2993548916500024, 3.0056184511900756, -0.018418359242621508, -0.53682619044365609, 1.045886956472853, -0.48727321818200653, -1.6181018713130886, 3.1420998096006301, -2.9302937252554977, 1.5893088640517261, -0.36319185637405882], [1.1426517161158098, 3.3417867990068091, 1.0067296511633506, -0.52181758641154186, 0.45892669665256131, 0.11400716797081251, -2.1157993256660781, 2.3776757273593163, -1.5522335378047178, 0.81147811675073045, -0.15373266847150996], [0.90424130547955861, 2.111418985731413, -0.40091819284759833, -0.090262381370829078, 1.1996872799738783, -0.12360863922683588, -1.0930569434869009, -0.30166467472173097, 1.0364073289131777, -0.64819323433612897, 0.28203305054326266], [-0.053111675467887587, 0.81255057164850675, -0.2314658118176211, -0.12215009490353253, -0.0093623451211904511, 0.017415376841703922, -0.0024810408896610982, -0.0012066760553251918, 0.013390107152052511, 0.0093225006681469848, -0.015826903542016296]], [[3.920539263946758, 5.4888629319019646, 0.093800129222558482, -2.1332049616220257, 1.9488067745423017, -0.30040257256896935, -1.7077444477549357, 1.0354449141085702, 0.69164373378416477, -0.77319953608857628, 0.28794095930661373], [-0.40117875851223067, 0.72096158137209909, 3.8859835605578352, 0.87558230917369606, -2.4519972190292183, 0.026863739024240524, 2.3037532121411513, -2.3276342240507422, 0.55971003343540526, 0.48211721868096097, -0.22105539574367739], [-0.28870885847169742, 1.0398821387893256, 4.9550671110578248, 2.9947549892571326, -1.2149694419749142, -0.98638979373474223, 1.1155479037379707, -2.794998251898388, 1.1329339335068005, 0.7275673997328691, -0.20070917677379727], [-0.28653030747992425, -0.61262212406151617, 0.65771472504105977, 0.17759972095640886, 0.14135171851832304, -0.27022478463738486, -0.088543314618277955, 0.26956070995153947, -0.53218564834131732, 0.45539263198800228, -0.13033204834946985], [-0.042367271603220832, -0.17517996538881345, 0.65843591446666661, -0.31318335609406994, -0.095878083908484193, 0.030678582521767889, 0.027024093368143067, 0.014397080282184728, -0.0032182342850710687, -0.03190475916823042, 0.023225085653997987]], [[3.0670737095451774, 4.8114057337407585, -0.21473063646219462, -1.5725882005875422, 1.0416884692828678, 0.5152931534839843, -2.3920593636301253, 1.3982627497573628, 0.85953139097776643, -1.0193695626604893, 0.34425541001962229], [0.63767619485460869, 0.40262929559160821, -1.6284768523621811, -0.3589847253627188, 1.6230504027868486, 0.78853606988125069, -3.3312260294939469, -0.35108965124105823, 3.9602222401833873, -3.0162978510141905, 0.67728569688933304], [-0.82544767880717129, -1.4371980450130812, -0.099997936021489681, 1.5573614755996239, -2.0205191732014174, -4.1336945384783563, -1.0750344226569404, 2.487933577466575, -0.99896923865253628, 2.6202132035844645, -1.9638045212707393], [0.0019046558709890111, -0.051776839125527059, -0.28044385787904469, 0.47695603500079953, -0.30045338544984218, 0.074696960097746554, 0.040131075243489675, -0.048148139987200023, 0.0056784681925192895, 0.023981483070440162, -0.012411563519430133], [-0.02561216402484141, -0.10947175893726875, -0.2830657862886658, 0.53955247044517796, -0.3403929018274045, -0.026594994632270826, 0.074485777273576817, 0.016572721101674692, -0.025756388179452725, -0.026499301361662824, 0.025401058863641759]], [[-1.4833114295414591, -1.1835157763347783, 2.2006090717362365, 1.2956790488584402, -0.55886422589952589, 0.57932761358253271, 0.41986767979269352, -2.4766330605962961, 1.7830395627845184, 0.19294662364065562, -0.19717807094578388], [0.073639083194119478, 0.57175642888068567, 1.9672998628132483, 3.199131767075782, 2.7702041951636205, -1.4952338044020859, -2.1380864094438716, 0.268046865032815, 0.57409338052149461, -0.14235770694194436, 0.61021788304148372], [0.29908152737297028, 0.066075468931277345, -1.426241398049013, -2.2279468039774084, -0.14282014413197577, -0.30459247996021271, -0.87160149952764465, 0.31062992306128223, 2.6676729240017862, -2.1038124799593789, 0.48540517146353701], [0.028570941553708224, 0.080703533876170339, 0.032373749384364166, -0.27667042710858836, 0.40925699880804306, -0.30747782973377802, 0.1095842324962293, 0.02026242706078497, -0.037925798220723735, 0.020775044247924802, -0.0023998970769610055], [-0.0097735547372687828, -0.041553067397644902, -0.11779567601532268, -0.30864423904309246, 0.51112910344530149, -0.30130647937361865, 0.031616413390411484, 0.059251700334265363, -0.035624772716893426, -0.0270008993851081, 0.029977342703448748]], [[-0.74823300229660916, -1.1135996815738256, 0.54233594352710712, 1.7513121077566316, 0.40730685517150717, -0.0081991219023273623, -0.38389656909528197, -0.16833812127539438, -0.83652379626909279, 1.6550950765136854, -0.53701177973280612], [-0.9055673937443266, -1.2044014739829199, 1.0127371308602877, 2.4348005264259807, 0.83784368319558833, 0.65056034701253529, 0.77266293776182182, -0.072204835004951964, -3.9750754504914885, 2.8645180141654847, 0.59627143646705683], [-0.0096639438757743761, -0.002128073450492179, 0.063526854817000461, 0.051246856655985155, -0.28418796324639178, 0.38208510637178716, -0.27822383345213769, 0.11732407732584127, -0.002048977842884579, -0.029774562024752725, 0.0084222128165714946], [-0.0096572827264726525, -0.0021126133383029396, 0.063532932958195218, 0.05122492467262587, -0.28422959068286086, 0.38205124517578626, -0.27823904777794972, 0.11731306479487642, -0.0020745697495123052, -0.029831823661132701, 0.0083325626521503875], [0.001032220494363813, 0.0029764932563551435, -0.001630303438384207, -0.064704093533982487, -0.29375880053289999, 0.482224153520802, -0.29517322487087494, 0.061081916204879835, 0.042939073375110944, -0.030134022997152857, -0.00015699007826728843]]], prehc: 0, lambdahc: 0, rcut: 6, dcut: 0.01, rcut_in: 0, dcut_in: 0, inner_cutoff_type: distance}
  [1, 1]: {nradmax: 6, lmax: 5, nradbasemax: 12, radbasename: ChebPow, radparameters: [5.25], radcoefficients: [[[0.72348772483203294, -0.67771091303826592, -0.65037954111947061, -0.28725475984397431, 0.20398310484097676, 0.79630467509735381, 0.82639724998559383, -0.42787949705813572, -1.4146920941569909, 0.20285860716436366, 1.1497198056729561, -0.5221802592315975], [0.24649375933354289, -1.744194263011128, -1.1050050264349407, 0.64961236707931846, 1.1701469085244198, -0.17967658555379115, -1.2733029000275926, -0.47295704370472547, 1.0742418678878487, 1.1297083131418768, -1.6113677468430587, 0.45154369875176953], [0.1687841932387634, -1.3768388741240649, 0.49491180917997779, 2.3434597142425213, 0.47500177491859447, -2.7204552540863927, -1.0352482988810026, 3.6091725646282815, 0.90531274519699212, -6.0980678365372816, 4.9373338136965135, -1.3209745584615313], [0.55747961878631036, -0.96807923953630837, -0.41496779993670718, 0.72153757351161951, 0.67166508282970216, -0.64456703156688011, -0.78261081799909293, 0.95337489536969333, 0.8043891319472527, -2.1247939383834273, 1.4836315829906426, -0.36663523146164306], [1.3008047496790305, -0.083139021872621302, -2.1302545555441856, -3.5384315876537236, -2.1707750477649799, -0.14074877164466285, -0.10484775068054998, -0.17243235874216584, 1.405981570963251, 0.89460505088151432, 0.68380634821623554, -0.98279224355666672], [1.076278373396568, 0.37333442854077481, 0.79711422977242696, 0.83400843486023091, 0.094427575241779957, -0.91148984586695181, -1.0819873163844085, -0.031946939200292866, 1.1693461208687166, 0.88301029577377554, -1.2184849219946292, 0.12891045067937609]], [[-0.20549540856912932, 0.9068630448486652, 0.91880547849220917, 1.4481263367851089, 0.0777998909361719, -1.5755805075767504, -0.61716294113749415, 1.7174433002153946, 0.52629759800294362, -2.8083250200149643, 2.2794850984641339, -0.62617112154798471], [1.0232674693824757, 3.5504221025760332, 2.130750095075765, -0.23657686915001624, -2.1195240786579075, -1.481504718630172, 1.1190883392349631, 2.4698014440536933, -0.1934562432477509, -3.3281544555769185, 2.2302603871333573, -0.32504598802160561], [0.1025732008266939, 1.388114318313199, 0.69601660486217687, 0.67892413707531207, 0.078646040460220015, -0.83374711369090515, -1.1646222743965713, -0.11718428706823034, 1.4038430989292183, 0.78379122586252126, -1.711403100508234, 0.5597081456046733], [-0.93106945270860653, -1.3292999212445633, -1.7306918682844004, 0.945516457099286, 2.4645161720659856, 0.36586786370305929, -2.6536809231433152, -1.6755842504167444, 2.3553024696397156, 2.3128086834343837, -3.2017420975652393, 0.9356552927541868], [0.87787251010847123, 3.0909823202026692, 1.9643700851996013, 1.4827056197386643, 1.924133700284181, 1.8403535166930913, 0.073681347646739836, -0.9707299104045749, -0.20435216467740663, -1.3019442068834572, -0.5687991242377215, 0.91138129649687638], [0.63081654950816823, 2.5524932288934914, 1.1734577715776884, -0.48763022011236656, -1.6056882873341012, -0.84414723403406222, 0.76006535401982778, 1.1428233158018792, 0.1061829615487139, -0.73269034820105539, -0.48138981734628189, 0.51933336384831141]], [[-0.15912524972554543, -0.4493292535076866, 0.65483506000483738, 0.50987718421067318, 1.4091438200885982, 0.94481004464484153, -0.86388211632970946, -1.7608219895119928, -0.25293289640170591, 1.2960204392353956, 0.32090726088436045, -0.46718151177724715], [0.969787433602883, 1.9698031230641047, 1.6106657023686204, -1.5655953803987492, -1.2952763467440356, 0.81199349420359113, 0.90841873352242464, -1.1827058802233765, -0.58963554333435597, 2.6608301917422756, -2.2867615522254896, 0.65374330648338819], [0.7452918533284707, 1.7879651140777968, 2.3730269240063437, -0.071301166537949767, -0.58590349092666449, 0.046661598080079525, -0.14546081188346005, -1.2668420024801104, -0.11802172853709535, 2.6280778352906884, -2.0156629519225375, 0.42400591305879398], [-0.27204139285414819, -0.27904565345761617, 1.4603681948701177, 0.5186001145749215, -0.71029559797062736, -1.1732467484305034, 0.1678230280366968, 0.93113921951031187, -0.04371772038488949, -0.12086762912763122, -0.15111560675523747, 0.049326484696838556], [-0.034475044906501828, -0.019179741141734208, 1.0250636183840773, -0.27103542589916402, -0.8877779335299002, -0.99793012092641298, -0.18818155718976989, 0.65452101720569722, 0.94504630559683578, 1.1580699439983067, -0.68440814800557148, -0.19395061379036227], [-0.15051146098255502, -0.52565026903321588, 0.13171304327997424, -0.80473751581242725, -0.33355360683787427, 0.14883619503183082, 0.34305187446508223, 0.23430214910184655, 0.072020732098381099, 0.064436008256704508, 0.089976666027342431, 0.0057255688827282675]], [[1.002759159669641, 2.4629256614269521, 1.8642596971105254, 0.27568690757977049, -2.6064716642778656, -2.1346948591073223, -0.60698547162479588, 0.33339291720803954, 1.0776724067328975, 1.6167747889593755, -1.2307101339017539, 0.58392613998026277], [0.40442484200355905, 1.12524845113253, 1.1780878891951974, 1.1590673071012123, -1.1695265253379568, -1.5585756632819896, -0.506289521193659, 1.089700675167864, 1.5174636170874343, 0.13206677329834479, -1.344503755012888, 0.46397676111403829], [0.19254838961808221, 0.5899289275063816, 0.88171503413663632, 1.9979165563404753, 1.0836205294832799, 1.083828754475886, 0.65996832036511821, -0.35194231458049802, -1.2252780847483153, -0.53488924796549819, 1.559684945872007, -1.9608940360056373], [-0.13652904708151992, -0.27909163346286586, -0.056526288748036134, 1.3686840776605513, 0.45688552834125634, 0.021044322904367505, -0.34407141418329484, -0.053017644962755704, 0.3943463598610244, 0.14342621988337292, -0.57088021837135461, 0.4331086194874959], [-0.69931336757292506, -1.6957203352580592, -1.2644033857422352, 1.3247807796648245, 0.91551626314604773, -0.40530001752122263, -1.4497846868844189, -0.13345841553502591, 1.2611911838817005, -0.34586506869487438, -0.4847331921131533, 0.27495495947728427], [0.076690803693980153, 0.1841208154092214, 0.077053049082778644, 0.73774520341134175, -0.4573844385582635, -0.3607396640324409, -0.18053829177473368, 0.024306908811679788, 0.21026591116536211, 0.31542524531184613, 0.30522747714764586, -0.48623273727533473]], [[-1.0940597141739237, -2.9088298982060232, -3.0501034470873742, -1.4524886157338559, 0.77051722552515112, -0.3916665702898755, -0.65818666439216544, 0.02052882151399664, 0.54031855094904035, -0.0090448557478555996, 1.0364836098161867, -0.088853039877646256], [0.031281363047418353, -0.14028652596335964, -0.68443913093049269, -0.91335147513237913, 0.98445634389363856, 1.3433352400306657, 1.2536711871441302, -0.69748016039650196, -1.8666850680584641, 0.074977700882241774, 2.357284848345834, -1.0916281852607126], [-0.20408809547702358, -0.47235744450435302, -0.26296002131452628, 0.3481723257977446, 1.6924057776707684, 0.42689010163494234, -0.024453857219706217, -0.09003726931522639, 0.067260294967143544, -0.23074490975496328, -1.1075823007456091, 0.37187055646502182], [0.33622888365211145, 0.86432988973416025, 0.69746959407802456, -0.40576740531932648, -0.60326774379069759, -1.6804693399727133, -0.42434504224831787, 1.0729286554784598, 1.4105896796235713, -0.0064042603163493132, -1.9126239950418789, 0.84277529601920687], [0.42687570681582043, 1.1664406776717229, 1.2967585362244305, 0.66618924626535725, 1.0927991016998762, 0.20763317419570454, 0.29056930256527896, -0.4114789951495843, -1.0299838063488758, -0.55413218633838757, -0.31000208002306329, 0.6174006633189647], [0.24647803412339744, 0.74306346955633051, 0.96673690327642092, 0.53796316558487278, 0.7239267866486313, -0.69995162119759358, -0.58079160907163219, -0.32540230904034989, -0.15812424761100252, -0.14043191063831764, -0.037402176261000106, -0.19404556314640048]], [[0.085392801320161096, 0.14264647954915666, 0.0088744797206166647, 0.062213286275785942, 0.63623232462274948, 2.0940815734965454, 0.41300472701573404, -1.0668914353883199, -1.2807097233452434, 0.40029176042143405, 0.49817457931026393, -0.38912620115176988], [-0.16333961936178806, -0.15443801267901394, 0.55098823640122374, 1.1960908009093323, 0.48182866279120273, -0.22583472410883532, -1.7196531248121509, -0.07333561437353131, 1.6209075192481657, 1.0731948794174715, -0.75349456352165678, -0.1830183101764376], [0.22469689864373341, 0.73047551175097092, 1.146432458236573, 1.21026397484235, 0.95215523168168803, 1.6489835769810548, 0.57179366822159361, 0.47029643799016918, -0.085704203010789695, -0.92937352699399034, -1.6173173293205263, -0.32133312171526174], [0.44096059266223492, 1.5208736058036914, 2.5838230717548454, 2.8299240842639852, 1.7833763991108562, 0.88147764167810616, -1.6216770953218391, -1.9285693252962171, -1.0736462320870126, 0.44856625571963388, 1.5172667420520078, -0.57624384085934943], [0.010306164346838193, 0.015038071090248364, -0.0419903331362457, -0.21339807835388677, -0.54060223493718329, 0.22999964353001051, -0.4466200898766291, 0.097276030530511579, 0.38001272570182548, 0.49906699894970336, 0.13642547350540557, -0.34634718749192178], [-0.0036783321698015924, -0.047163098421582797, -0.16155483520922984, -0.30125603307234922, -0.44410973142394916, 0.53911290372861198, -0.15656657522814338, 0.022089688272064686, -0.16844169604402356, -0.12401240596988088, 0.17408979873891955, -0.18597598322910375]]], prehc: 0, lambdahc: 0, rcut: 6, dcut: 0.01, rcut_in: 0, dcut_in: 0, inner_cutoff_type: distance}
functions:
  0:
    - {mu0: 0, rank: 1, ndensity: 2, num_ms_combs: 1, mus: [0], ns: [1], ls: [0], ms_combs: [0], ctildes: [0.30322633032923962, -1.4903072611108155]}
    - {mu0: 0, rank: 1, ndensity: 2, num_ms_combs: 1, mus: [0], ns: [2], ls: [0], ms_combs: [0], ctildes: [0.90987181903091774, -3.9247935618493384]}
    - {mu0: 0, rank: 1, ndensity: 2, num_ms_combs: 1, mus: [0], ns: [3], ls: [0], ms_combs: [0], ctildes: [0.70912155381677533, -3.9917434721086353]}
    - {mu0: 0, rank: 1, ndensity: 2, num_ms_combs: 1, mus: [0], ns: [4], ls: [0], ms_combs: [0], ctildes: [-0.45385930898411303, -1.2851081496615824]}
    - {mu0: 0, rank: 1, ndensity: 2, num_ms_combs: 1, mus: [0], ns: [5], ls: [0], ms_combs: [0], ctildes: [-0.57143001708511787, 1.6723899734290297]}
    - {mu0: 0, rank: 1, ndensity: 2, num_ms_combs: 1, mus: [0], ns: [6], ls: [0], ms_combs: [0], ctildes: [0.54599827489865727, 2.3582882592277992]}
    - {mu0: 0, rank: 1, ndensity: 2, num_ms_combs: 1, mus: [0], ns: [7], ls: [0], ms_combs: [0], ctildes: [0.35299558117472679, 0.46068193770603738]}
    - {mu0: 0, rank: 1, ndensity: 2, num_ms_combs: 1, mus: [0], ns: [8], ls: [0], ms_combs: [0], ctildes: [-0.73005770397706171, -1.6404910269021629]}
    - {mu0: 0, rank: 1, ndensity: 2, num_ms_combs: 1, mus: [0], ns: [9], ls: [0], ms_combs: [0], ctildes: [0.0062435557192818958, -1.1103361844294108]}
    - {mu0: 0, rank: 1, ndensity: 2, num_ms_combs: 1, mus: [0], ns: [10], ls: [0], ms_combs: [0], ctildes: [0.82108094169963142, 1.0531463589491816]}
    - {mu0: 0, rank: 1, ndensity: 2, num_ms_combs: 1, mus: [0], ns: [11], ls: [0], ms_combs: [0], ctildes: [-0.74858165868325599, 0.67138250131610411]}
    - {mu0: 0, rank: 1, ndensity: 2, num_ms_combs: 1, mus: [0], ns: [12], ls: [0], ms_combs: [0], ctildes: [0.24185026891145259, -0.59934708362430966]}
    - {mu0: 0, rank: 1, ndensity: 2, num_ms_combs: 1, mus: [1], ns: [1], ls: [0], ms_combs: [0], ctildes: [0.92477447842373539, -1.7010016119572362]}
    - {mu0: 0, rank: 1, ndensity: 2, num_ms_combs: 1, mus: [1], ns: [2], ls: [0], ms_combs: [0], ctildes: [1.0761956260632486, -5.5528138968566241]}
    - {mu0: 0, rank: 1, ndensity: 2, num_ms_combs: 1, mus: [1], ns: [3], ls: [0], ms_combs: [0], ctildes: [-1.0929844269868996, -8.3170399739464713]}
    - {mu0: 0, rank: 1, ndensity: 2, num_ms_combs: 1, mus: [1], ns: [4], ls: [0], ms_combs: [0], ctildes: [-1.4297405791587667, -6.9624200530653049]}
    - {mu0: 0, rank: 1, ndensity: 2, num_ms_combs: 1, mus: [1], ns: [5], ls: [0], ms_combs: [0], ctildes: [1.0088282472559935, -1.7815209223754545]}
    - {mu0: 0, rank: 1, ndensity: 2, num_ms_combs: 1, mus: [1], ns: [6], ls: [0], ms_combs: [0], ctildes: [0.62661313319934653, 3.3084712229182713]}
    - {mu0: 0, rank: 1, ndensity: 2, num_ms_combs: 1, mus: [1], ns: [7], ls: [0], ms_combs: [0], ctildes: [-1.7711820824310056, 4.6096738013811525]}
    - {mu0: 0, rank: 1, ndensity: 2, num_ms_combs: 1, mus: [1], ns: [8], ls: [0], ms_combs: [0], ctildes: [1.0195347797668475, 1.9125725568535406]}
    - {mu0: 0, rank: 1, ndensity: 2, num_ms_combs: 1, mus: [1], ns: [9], ls: [0], ms_combs: [0], ctildes: [0.416627971715823, -2.071687813968536]}
    - {mu0: 0, rank: 1, ndensity: 2, num_ms_combs: 1, mus: [1], ns: [10], ls: [0], ms_combs: [0], ctildes: [-1.0960586137350168, 0.28404701344879396]}
    - {mu0: 0, rank: 1, ndensity: 2, num_ms_combs: 1, mus: [1], ns: [11], ls: [0], ms_combs: [0], ctildes: [0.3764137234427985, -0.74579756043350809]}
    - {mu0: 0, rank: 2, ndensity: 2, num_ms_combs: 1, mus: [0, 0], ns: [1, 1], ls: [0, 0], ms_combs: [0, 0], ctildes: [-1.0063453126546675, -0.16429997051310158]}
    - {mu0: 0, rank: 2, ndensity: 2, num_ms_combs: 2, mus: [0, 0], ns: [1, 1], ls: [1, 1], ms_combs: [0, 0, 1, -1], ctildes: [0.86268720607882043, -0.31526076365924804, -1.7253744121576404, 0.63052152731849598]}
    - {mu0: 0, rank: 2, ndensity: 2, num_ms_combs: 3, mus: [0, 0], ns: [1, 1], ls: [2, 2], ms_combs: [0, 0, 1, -1, 2, -2], ctildes: [-0.86110283471562032, 0.14491787983151766, 1.7222056694312409, -0.28983575966303532, -1.7222056694312413, 0.28983575966303537]}
    - {mu0: 0, rank: 2, ndensity: 2, num_ms_combs: 4, mus: [0, 0], ns: [1, 1], ls: [3, 3], ms_combs: [0, 0, 1, -1, 2, -2, 3, -3], ctildes: [1.0887538467756797, 0.50075702065203176, -2.1775076935513593, -1.0015140413040635, 2.1775076935513593, 1.0015140413040635, -2.1775076935513593, -1.0015140413040635]}
    - {mu0: 0, rank: 2, ndensity: 2, num_ms_combs: 5, mus: [0, 0], ns: [1, 1], ls: [4, 4], ms_combs: [0, 0, 1, -1, 2, -2, 3, -3, 4, -4], ctildes: [0.2964150915759774, 0.84633659563192665, -0.59283018315195457, -1.6926731912638528, 0.59283018315195457, 1.6926731912638528, -0.59283018315195457, -1.6926731912638524, 0.59283018315195468, 1.6926731912638531]}
    - {mu0: 0, rank: 2, ndensity: 2, num_ms_combs: 6, mus: [0, 0], ns: [1, 1], ls: [5, 5], ms_combs: [0, 0, 1, -1, 2, -2, 3, -3, 4, -4, 5, -5], ctildes: [0.050517216571118295, 0.59945755478965557, -0.10103443314223659, -1.1989151095793111, 0.10103443314223662, 1.1989151095793111, -0.10103443314223663, -1.1989151095793114, 0.10103443314223662, 1.1989151095793111, -0.10103443314223651, -1.19891510957931]}
    - {mu0: 0, rank: 2, ndensity: 2, num_ms_combs: 1, mus: [0, 0], ns: [1, 2], ls: [0, 0], ms_combs: [0, 0], ctildes: [-1.3929345094382868, -0.56194390867898403]}
    - {mu0: 0, rank: 2, ndensity: 2, num_ms_combs: 2, mus: [0, 0], ns: [1, 2], ls: [1, 1], ms_combs: [0, 0, 1, -1], ctildes: [0.9239739422628781, 0.054854468783530147, -1.847947884525756, -0.10970893756706028]}
    - {mu0: 0, rank: 2, ndensity: 2, num_ms_combs: 3, mus: [0, 0], ns: [1, 2], ls: [2, 2], ms_combs: [0, 0, 1, -1, 2, -2], ctildes: [0.42098654479204883, 0.078748063573526969, -0.84197308958409778, -0.15749612714705394, 0.841973089584098, 0.15749612714705399]}
    - {mu0: 0, rank: 2, ndensity: 2, num_ms_combs: 4, mus: [0, 0], ns: [1, 2], ls: [3, 3], ms_combs: [0, 0, 1, -1, 2, -2, 3, -3], ctildes: [0.67043854909132483, -0.4464546368061732, -1.3408770981826497, 0.8929092736123464, 1.3408770981826494, -0.89290927361234629, -1.3408770981826494, 0.89290927361234629]}
    - {mu0: 0, rank: 2, ndensity: 2, num_ms_combs: 5, mus: [0, 0], ns: [1, 2], ls: [4, 4], ms_combs: [0, 0, 1, -1, 2, -2, 3, -3, 4, -4], ctildes: [0.29001165988070582, 0.08740553046299028, -0.58002331976141142, -0.1748110609259805, 0.58002331976141142, 0.1748110609259805, -0.5800233197614113, -0.17481106092598048, 0.58002331976141153, 0.17481106092598053]}
    - {mu0: 0, rank: 2, ndensity: 2, num_ms_combs: 6, mus: [0, 0], ns: [1, 2], ls: [5, 5], ms_combs: [0, 0, 1, -1, 2, -2, 3, -3, 4, -4, 5, -5], ctildes: [-0.0068054872401560702, 0.19782905505381432, 0.01361097448031214, -0.39565811010762864, -0.013610974480312142, 0.39565811010762869, 0.013610974480312146, -0.3956581101076288, -0.013610974480312142, 0.39565811010762869, 0.013610974480312128, -0.39565811010762825]}
    - {mu0: 0, rank: 2, ndensity: 2, num_ms_combs: 1, mus: [0, 0], ns: [1, 3], ls: [0, 0], ms_combs: [0, 0], ctildes: [-3.9330924534752203, -0.92667647501619144]}
    - {mu0: 0, rank: 2, ndensity: 2, num_ms_combs: 2, mus: [0, 0], ns: [1, 3], ls: [1, 1], ms_combs: [0, 0, 1, -1], ctildes: [1.1066974162852325, 0.90703372468962717, -2.2133948325704647, -1.8140674493792539]}
    - {mu0: 0, rank: 2, ndensity: 2, num_ms_combs: 3, mus: [0, 0], ns: [1, 3], ls: [2, 2], ms_combs: [0, 0, 1, -1, 2, -2], ctildes: [0.65896557848594639, 0.19499935977528646, -1.317931156971893, -0.38999871955057297, 1.3179311569718932, 0.38999871955057308]}
    - {mu0: 0, rank: 2, ndensity: 2, num_ms_combs: 4, mus: [0, 0], ns: [1, 3], ls: [3, 3], ms_combs: [0, 0, 1, -1, 2, -2, 3, -3], ctildes: [0.30475510272404327, 1.2356179005011938, -0.60951020544808654, -2.4712358010023876, 0.60951020544808643, 2.4712358010023872, -0.60951020544808643, -2.4712358010023872]}
    - {mu0: 0, rank: 2, ndensity: 2, num_ms_combs: 5, mus: [0, 0], ns: [1, 3], ls: [4, 4], ms_combs: [0, 0, 1, -1, 2, -2, 3, -3, 4, -4], ctildes: [-0.33712182161765469, -0.29451862345919844, 0.67424364323530916, 0.58903724691839665, -0.67424364323530916, -0.58903724691839665, 0.67424364323530905, 0.58903724691839654, -0.67424364323530928, -0.58903724691839676]}
    - {mu0: 0, rank: 2, ndensity: 2, num_ms_combs: 6, mus: [0, 0], ns: [1, 3], ls: [5, 5], ms_combs: [0, 0, 1, -1, 2, -2, 3, -3, 4, -4, 5, -5], ctildes: [-0.051090604292321228, 0.059066765368281725, 0.10218120858464246, -0.11813353073656345, -0.10218120858464247, 0.11813353073656346, 0.10218120858464248, -0.11813353073656349, -0.10218120858464247, 0.11813353073656346, 0.10218120858464236, -0.11813353073656334]}
    - {mu0: 0, rank: 2, ndensity: 2, num_ms_combs: 1, mus: [0, 0], ns: [1, 4], ls: [0, 0], ms_combs: [0, 0], ctildes: [-1.2135642833559803, -1.1910868103393333]}
    - {mu0: 0, rank: 2, ndensity: 2, num_ms_combs: 2, mus: [0, 0], ns: [1, 4], ls: [1, 1], ms_combs: [0, 0, 1, -1], ctildes: [-0.38010843748684259, -0.48105933368076353, 0.76021687497368506, 0.96211866736152685]}
    - {mu0: 0, rank: 2, ndensity: 2, num_ms_combs: 3, mus: [0, 0], ns: [1, 4], ls: [2, 2], ms_combs: [0, 0, 1, -1, 2, -2], ctildes: [0.60802501628935879, 0.82850693342518966, -1.2160500325787178, -1.6570138668503795, 1.216050032578718, 1.65701386685038]}
    - {mu0: 0, rank: 2, ndensity: 2, num_ms_combs: 4, mus: [0, 0], ns: [1, 4], ls: [3, 3], ms_combs: [0, 0, 1, -1, 2, -2, 3, -3], ctildes: [-0.57216159368734976, -0.17341148360848313, 1.1443231873746995, 0.34682296721696626, -1.1443231873746995, -0.3468229672169662, 1.1443231873746995, 0.3468229672169662]}
    - {mu0: 0, rank: 2, ndensity: 2, num_ms_combs: 5, mus: [0, 0], ns: [1, 4], ls: [4, 4], ms_combs: [0, 0, 1, -1, 2, -2, 3, -3, 4, -4], ctildes: [0.056212020759125764, -1.2248087201251889, -0.11242404151825149, 2.449617440250377, 0.11242404151825149, -2.449617440250377, -0.11242404151825147, 2.449617440250377, 0.1124240415182515, -2.4496174402503774]}
    - {mu0: 0, rank: 2, ndensity: 2, num_ms_combs: 6, mus: [0, 0], ns: [1, 4], ls: [5, 5], ms_combs: [0, 0, 1, -1, 2, -2, 3, -3, 4, -4, 5, -5], ctildes: [-0.037246604825236118, 0.016154837536966591, 0.074493209650472236, -0.032309675073933182, -0.07449320965047225, 0.032309675073933189, 0.074493209650472264, -0.032309675073933196, -0.07449320965047225, 0.032309675073933189, 0.074493209650472167, -0.032309675073933154]}
    - {mu0: 0, rank: 2, ndensity: 2, num_ms_combs: 1, mus: [0, 0], ns: [1, 5], ls: [0, 0], ms_combs: [0, 0], ctildes: [1.5995759374846312, 1.5351893229559996]}
    - {mu0: 0, rank: 2, ndensity: 2, num_ms_combs: 2, mus: [0, 0], ns: [1, 5], ls: [1, 1], ms_combs: [0, 0, 1, -1], ctildes: [0.41838281843371411, -1.146375098400553, -0.836765636867428, 2.2927501968011055]}
    - {mu0: 0, rank: 2, ndensity: 2, num_ms_combs: 3, mus: [0, 0], ns: [1, 5], ls: [2, 2], ms_combs: [0, 0, 1, -1, 2, -2], ctildes: [-0.14340811526343517, 1.5027965121520581, 0.28681623052687039, -3.0055930243041167, -0.28681623052687044, 3.0055930243041171]}
    - {mu0: 0, rank: 2, ndensity: 2, num_ms_combs: 4, mus: [0, 0], ns: [1, 5], ls: [3, 3], ms_combs: [0, 0, 1, -1, 2, -2, 3, -3], ctildes: [-0.10286012882718837, -2.2846018957952627, 0.20572025765437674, 4.5692037915905255, -0.20572025765437671, -4.5692037915905246, 0.20572025765437671, 4.5692037915905246]}
    - {mu0: 0, rank: 2, ndensity: 2, num_ms_combs: 5, mus: [0, 0], ns: [1, 5], ls: [4, 4], ms_combs: [0, 0, 1, -1, 2, -2, 3, -3, 4, -4], ctildes: [-0.086116836070495986, 0.313467377315787, 0.17223367214099192, -0.62693475463157378, -0.17223367214099192, 0.62693475463157378, 0.17223367214099189, -0.62693475463157367, -0.17223367214099194, 0.62693475463157389]}
    - {mu0: 0, rank: 2, ndensity: 2, num_ms_combs: 6, mus: [0, 0], ns: [1, 5], ls: [5, 5], ms_combs: [0, 0, 1, -1, 2, -2, 3, -3, 4, -4, 5, -5], ctildes: [0.22308229714567487, 0.027630731389412206, -0.44616459429134975, -0.055261462778824412, 0.4461645942913498, 0.055261462778824419, -0.44616459429134991, -0.055261462778824433, 0.4461645942913498, 0.055261462778824419, -0.44616459429134936, -0.055261462778824363]}
    - {mu0: 0, rank: 2, ndensity: 2, num_ms_combs: 1, mus: [0, 0], ns: [1, 6], ls: [0, 0], ms_combs: [0, 0], ctildes: [-0.97152250012346875, 0.04452120724458742]}
    - {mu0: 0, rank: 2, ndensity: 2, num_ms_combs: 2, mus: [0, 0], ns: [1, 6], ls: [1, 1], ms_combs: [0, 0, 1, -1], ctildes: [0.66839507855205027, -1.575533382758977, -1.3367901571041003, 3.1510667655179532]}
    - {mu0: 0, rank: 2, ndensity: 2, num_ms_combs: 3, mus: [0, 0], ns: [1, 6], ls: [2, 2], ms_combs: [0, 0, 1, -1, 2, -2], ctildes: [0.074037891843632242, 0.8929211323118087, -0.14807578368726451, -1.7858422646236176, 0.14807578368726454, 1.7858422646236181]}
    - {mu0: 0, rank: 2, ndensity: 2, num_ms_combs: 4, mus: [0, 0], ns: [1, 6], ls: [3, 3], ms_combs: [0, 0, 1, -1, 2, -2, 3, -3], ctildes: [0.82267985982508696, -1.0913403452052324, -1.6453597196501739, 2.1826806904104648, 1.6453597196501737, -2.1826806904104643, -1.6453597196501737, 2.1826806904104643]}
    - {mu0: 0, rank: 2, ndensity: 2, num_ms_combs: 5, mus: [0, 0], ns: [1, 6], ls: [4, 4], ms_combs: [0, 0, 1, -1, 2, -2, 3, -3, 4, -4], ctildes: [0.13579340586462094, 0.049485868278998986, -0.27158681172924176, -0.09897173655799793, 0.27158681172924176, 0.09897173655799793, -0.27158681172924171, -0.098971736557997916, 0.27158681172924182, 0.098971736557997958]}
    - {mu0: 0, rank: 2, ndensity: 2, num_ms_combs: 6, mus: [0, 0], ns: [1, 6], ls: [5, 5], ms_combs: [0, 0, 1, -1, 2, -2, 3, -3, 4, -4, 5, -5], ctildes: [-0.077287953823527059, -0.24178034770382106, 0.15457590764705412, 0.48356069540764213, -0.15457590764705414, -0.48356069540764224, 0.15457590764705417, 0.48356069540764235, -0.15457590764705414, -0.48356069540764224, 0.15457590764705398, 0.48356069540764168]}
    - {mu0: 0, rank: 2, ndensity: 2, num_ms_combs: 1, mus: [0, 0], ns: [2, 2], ls: [0, 0], ms_combs: [0, 0], ctildes: [2.3235003817379329, -2.4859675574310587]}
    - {mu0: 0, rank: 2, ndensity: 2, num_ms_combs: 2, mus: [0, 0], ns: [2, 2], ls: [1, 1], ms_combs: [0, 0, 1, -1], ctildes: [-0.17165136195334149, -0.62616642948057333, 0.34330272390668293, 1.2523328589611464]}
    - {mu0: 0, rank: 2, ndensity: 2, num_ms_combs: 3, mus: [0, 0], ns: [2, 2], ls: [2, 2], ms_combs: [0, 0, 1, -1, 2, -2], ctildes: [-0.25332672044885257, -0.44087950620420796, 0.50665344089770514, 0.88175901240841603, -0.50665344089770525, -0.88175901240841625]}
    - {mu0: 0, rank: 2, ndensity: 2, num_ms_combs: 4, mus: [0, 0], ns: [2, 2], ls: [3, 3], ms_combs: [0, 0, 1, -1, 2, -2, 3, -3], ctildes: [0.057372672688024096, 0.2875761743664722, -0.11474534537604819, -0.57515234873294441, 0.11474534537604818, 0.57515234873294441, -0.11474534537604818, -0.57515234873294441]}
    - {mu0: 0, rank: 2, ndensity: 2, num_ms_combs: 5, mus: [0, 0], ns: [2, 2], ls: [4, 4], ms_combs: [0, 0, 1, -1, 2, -2, 3, -3, 4, -4], ctildes: [0.06511112252069709, -0.59508570040376652, -0.13022224504139412, 1.1901714008075326, 0.13022224504139412, -1.1901714008075326, -0.13022224504139412, 1.1901714008075326, 0.13022224504139415, -1.1901714008075328]}
    - {mu0: 0, rank: 2, ndensity: 2, num_ms_combs: 6, mus: [0, 0], ns: [2, 2], ls: [5, 5], ms_combs: [0, 0, 1, -1, 2, -2, 3, -3, 4, -4, 5, -5], ctildes: [0.0033236369226152794, -0.056292026853077735, -0.0066472738452305587, 0.11258405370615547, 0.0066472738452305596, -0.1125840537061555, -0.0066472738452305613, 0.11258405370615551, 0.0066472738452305596, -0.1125840537061555, -0.0066472738452305526, 0.11258405370615537]}
    - {mu0: 0, rank: 2, ndensity: 2, num_ms_combs: 1, mus: [0, 0], ns: [2, 3], ls: [0, 0], ms_combs: [0, 0], ctildes: [0.83554879179375852, -3.9546263164496356]}
    - {mu0: 0, rank: 2, ndensity: 2, num_ms_combs: 2, mus: [0, 0], ns: [2, 3], ls: [1, 1], ms_combs: [0, 0, 1, -1], ctildes: [0.76270469183645118, 0.40686930596097026, -1.5254093836729019, -0.81373861192194041]}
    - {mu0: 0, rank: 2, ndensity: 2, num_ms_combs: 3, mus: [0, 0], ns: [2, 3], ls: [2, 2], ms_combs: [0, 0, 1, -1, 2, -2], ctildes: [-1.0429008823895616, 0.95035453975558126, 2.0858017647791236, -1.9007090795111627, -2.085801764779124, 1.9007090795111632]}
    - {mu0: 0, rank: 2, ndensity: 2, num_ms_combs: 4, mus: [0, 0], ns: [2, 3], ls: [3, 3], ms_combs: [0, 0, 1, -1, 2, -2, 3, -3], ctildes: [0.072759811535470897, -1.4974284307118455, -0.14551962307094179, 2.994856861423691, 0.14551962307094177, -2.9948568614236906, -0.14551962307094177, 2.9948568614236906]}
    - {mu0: 0, rank: 2, ndensity: 2, num_ms_combs: 5, mus: [0, 0], ns: [2, 3], ls: [4, 4], ms_combs: [0, 0, 1, -1, 2, -2, 3, -3, 4, -4], ctildes: [-0.15031460762749627, -0.21891348634894947, 0.30062921525499242, 0.43782697269789878, -0.30062921525499242, -0.43782697269789878, 0.30062921525499237, 0.43782697269789872, -0.30062921525499248, -0.43782697269789883]}
    - {mu0: 0, rank: 2, ndensity: 2, num_ms_combs: 6, mus: [0, 0], ns: [2, 3], ls: [5, 5], ms_combs: [0, 0, 1, -1, 2, -2, 3, -3, 4, -4, 5, -5], ctildes: [0.015976345930461901, -0.061880594767876052, -0.031952691860923803, 0.1237611895357521, 0.03195269186092381, -0.12376118953575213, -0.03195269186092381, 0.12376118953575214, 0.03195269186092381, -0.12376118953575213, -0.031952691860923768, 0.12376118953575199]}
    - {mu0: 0, rank: 2, ndensity: 2, num_ms_combs: 1, mus: [0, 0], ns: [2, 4], ls: [0, 0], ms_combs: [0, 0], ctildes: [2.3805930326595495, -2.6429672566616338]}
    - {mu0: 0, rank: 2, ndensity: 2, num_ms_combs: 2, mus: [0, 0], ns: [2, 4], ls: [1, 1], ms_combs: [0, 0, 1, -1], ctildes: [-0.68135103576993794, -0.84057198314636794, 1.3627020715398757, 1.6811439662927354]}
    - {mu0: 0, rank: 2, ndensity: 2, num_ms_combs: 3, mus: [0, 0], ns: [2, 4], ls: [2, 2], ms_combs: [0, 0, 1, -1, 2, -2], ctildes: [0.9055764388265235, 0.21876725134646102, -1.8111528776530472, -0.4375345026929221, 1.8111528776530477, 0.43753450269292221]}
    - {mu0: 0, rank: 2, ndensity: 2, num_ms_combs: 4, mus: [0, 0], ns: [2, 4], ls: [3, 3], ms_combs: [0, 0, 1, -1, 2, -2, 3, -3], ctildes: [0.45400565211509386, -0.14533919383113739, -0.90801130423018772, 0.29067838766227477, 0.90801130423018761, -0.29067838766227472, -0.90801130423018761, 0.29067838766227472]}
    - {mu0: 0, rank: 2, ndensity: 2, num_ms_combs: 5, mus: [0, 0], ns: [2, 4], ls: [4, 4], ms_combs: [0, 0, 1, -1, 2, -2, 3, -3, 4, -4], ctildes: [-0.00351398510201024, -0.13355229371663835, 0.0070279702040204773, 0.26710458743327659, -0.0070279702040204773, -0.26710458743327659, 0.0070279702040204764, 0.26710458743327653, -0.007027970204020479, -0.26710458743327664]}
    - {mu0: 0, rank: 2, ndensity: 2, num_ms_combs: 6, mus: [0, 0], ns: [2, 4], ls: [5, 5], ms_combs: [0, 0, 1, -1, 2, -2, 3, -3, 4, -4, 5, -5], ctildes: [0.00018212140217347078, 0.3767390891276558, -0.00036424280434694156, -0.7534781782553116, 0.00036424280434694162, 0.75347817825531183, -0.00036424280434694173, -0.75347817825531194, 0.00036424280434694162, 0.75347817825531183, -0.00036424280434694124, -0.75347817825531094]}
    - {mu0: 0, rank: 2, ndensity: 2, num_ms_combs: 1, mus: [0, 0], ns: [2, 5], ls: [0, 0], ms_combs: [0, 0], ctildes: [0.98434934240511052, 3.8395857807645357]}
    - {mu0: 0, rank: 2, ndensity: 2, num_ms_combs: 2, mus: [0, 0], ns: [2, 5], ls: [1, 1], ms_combs: [0, 0, 1, -1], ctildes: [0.76239632355729103, -0.54039179732834852, -1.5247926471145816, 1.0807835946566968]}
    - {mu0: 0, rank: 2, ndensity: 2, num_ms_combs: 3, mus: [0, 0], ns: [2, 5], ls: [2, 2], ms_combs: [0, 0, 1, -1, 2, -2], ctildes: [-0.32711032688687414, 0.56273607818726556, 0.65422065377374838, -1.1254721563745314, -0.6542206537737485, 1.1254721563745316]}
    - {mu0: 0, rank: 2, ndensity: 2, num_ms_combs: 4, mus: [0, 0], ns: [2, 5], ls: [3, 3], ms_combs: [0, 0, 1, -1, 2, -2, 3, -3], ctildes: [-0.076221106589768592, -0.045924116106735594, 0.15244221317953718, 0.091848232213471187, -0.15244221317953716, -0.091848232213471173, 0.15244221317953716, 0.091848232213471173]}
    - {mu0: 0, rank: 2, ndensity: 2, num_ms_combs: 5, mus: [0, 0], ns: [2, 5], ls: [4, 4], ms_combs: [0, 0, 1, -1, 2, -2, 3, -3, 4, -4], ctildes: [-0.017986606126933206, -0.014885295708961254, 0.035973212253866398, 0.029770591417922498, -0.035973212253866398, -0.029770591417922498, 0.035973212253866391, 0.029770591417922494, -0.035973212253866405, -0.029770591417922505]}
    - {mu0: 0, rank: 2, ndensity: 2, num_ms_combs: 6, mus: [0, 0], ns: [2, 5], ls: [5, 5], ms_combs: [0, 0, 1, -1, 2, -2, 3, -3, 4, -4, 5, -5], ctildes: [0.033540892593822265, -0.64921961006155071, -0.06708178518764453, 1.2984392201231014, 0.067081785187644544, -1.2984392201231016, -0.067081785187644558, 1.2984392201231019, 0.067081785187644544, -1.2984392201231016, -0.067081785187644474, 1.2984392201231003]}
    - {mu0: 0, rank: 2, ndensity: 2, num_ms_combs: 1, mus: [0, 0], ns: [2, 6], ls: [0, 0], ms_combs: [0, 0], ctildes: [-0.84470357899958282, -0.28698736507349482]}
    - {mu0: 0, rank: 2, ndensity: 2, num_ms_combs: 2, mus: [0, 0], ns: [2, 6], ls: [1, 1], ms_combs: [0, 0, 1, -1], ctildes: [-0.15986676810955958, -0.1866128379199963, 0.3197335362191191, 0.3732256758399925]}
    - {mu0: 0, rank: 2, ndensity: 2, num_ms_combs: 3, mus: [0, 0], ns: [2, 6], ls: [2, 2], ms_combs: [0, 0, 1, -1, 2, -2], ctildes: [-0.022601812587541195, -1.3834732856021354, 0.04520362517508239, 2.7669465712042709, -0.045203625175082404, -2.7669465712042718]}
    - {mu0: 0, rank: 2, ndensity: 2, num_ms_combs: 4, mus: [0, 0], ns: [2, 6], ls: [3, 3], ms_combs: [0, 0, 1, -1, 2, -2, 3, -3], ctildes: [-0.0765053582357752, 0.12137614199811241, 0.1530107164715504, -0.24275228399622481, -0.15301071647155037, 0.24275228399622478, 0.15301071647155037, -0.24275228399622478]}
    - {mu0: 0, rank: 2, ndensity: 2, num_ms_combs: 5, mus: [0, 0], ns: [2, 6], ls: [4, 4], ms_combs: [0, 0, 1, -1, 2, -2, 3, -3, 4, -4], ctildes: [0.048868039221276707, 0.20597520031990255, -0.097736078442553387, -0.41195040063980498, 0.097736078442553387, 0.41195040063980498, -0.097736078442553373, -0.41195040063980493, 0.097736078442553401, 0.41195040063980504]}
    - {mu0: 0, rank: 2, ndensity: 2, num_ms_combs: 6, mus: [0, 0], ns: [2, 6], ls: [5, 5], ms_combs: [0, 0, 1, -1, 2, -2, 3, -3, 4, -4, 5, -5], ctildes: [0.031189706150235478, -0.31676123062594047, -0.062379412300470956, 0.63352246125188094, 0.06237941230047097, -0.63352246125188105, -0.062379412300470984, 0.63352246125188116, 0.06237941230047097, -0.63352246125188105, -0.0623794123004709, 0.63352246125188039]}
    - {mu0: 0, rank: 2, ndensity: 2, num_ms_combs: 1, mus: [0, 0], ns: [3, 3], ls: [0, 0], ms_combs: [0, 0], ctildes: [-0.12430189247996823, -0.50112273914845107]}
    - {mu0: 0, rank: 2, ndensity: 2, num_ms_combs: 2, mus: [0, 0], ns: [3, 3], ls: [1, 1], ms_combs: [0, 0, 1, -1], ctildes: [-1.4408246571349475, 0.034976864215901564, 2.881649314269894, -0.069953728431803114]}
    - {mu0: 0, rank: 2, ndensity: 2, num_ms_combs: 3, mus: [0, 0], ns: [3, 3], ls: [2, 2], ms_combs: [0, 0, 1, -1, 2, -2], ctildes: [0.28244576004229255, 1.3756536078065553, -0.5648915200845851, -2.7513072156131111, 0.56489152008458521, 2.751307215613112]}
    - {mu0: 0, rank: 2, ndensity: 2, num_ms_combs: 4, mus: [0, 0], ns: [3, 3], ls: [3, 3], ms_combs: [0, 0, 1, -1, 2, -2, 3, -3], ctildes: [0.093225305215967752, 0.12003137402036747, -0.1864506104319355, -0.24006274804073494, 0.18645061043193548, 0.24006274804073491, -0.18645061043193548, -0.24006274804073491]}
    - {mu0: 0, rank: 2, ndensity: 2, num_ms_combs: 5, mus: [0, 0], ns: [3, 3], ls: [4, 4], ms_combs: [0, 0, 1, -1, 2, -2, 3, -3, 4, -4], ctildes: [0.097428119817305217, -0.13304098127745537, -0.19485623963461035, 0.26608196255491068, 0.19485623963461035, -0.26608196255491068, -0.19485623963461032, 0.26608196255491062, 0.19485623963461041, -0.26608196255491068]}
    - {mu0: 0, rank: 2, ndensity: 2, num_ms_combs: 6, mus: [0, 0], ns: [3, 3], ls: [5, 5], ms_combs: [0, 0, 1, -1, 2, -2, 3, -3, 4, -4, 5, -5], ctildes: [0.0095072938956327849, -0.13690031364397454, -0.01901458779126557, 0.27380062728794907, 0.019014587791265573, -0.27380062728794913, -0.019014587791265577, 0.27380062728794913, 0.019014587791265573, -0.27380062728794913, -0.019014587791265553, 0.27380062728794879]}
    - {mu0: 0, rank: 2, ndensity: 2, num_ms_combs: 1, mus: [0, 0], ns: [3, 4], ls: [0, 0], ms_combs: [0, 0], ctildes: [-0.70925909104153484, 3.6096261038839934]}
    - {mu0: 0, rank: 2, ndensity: 2, num_ms_combs: 2, mus: [0, 0], ns: [3, 4], ls: [1, 1], ms_combs: [0, 0, 1, -1], ctildes: [0.66215324489693117, 1.0866530812085913, -1.3243064897938621, -2.1733061624171826]}
    - {mu0: 0, rank: 2, ndensity: 2, num_ms_combs: 3, mus: [0, 0], ns: [3, 4], ls: [2, 2], ms_combs: [0, 0, 1, -1, 2, -2], ctildes: [-0.080543038126922262, -0.27459135447147803, 0.16108607625384455, 0.54918270894295607, -0.16108607625384458, -0.54918270894295629]}
    - {mu0: 0, rank: 2, ndensity: 2, num_ms_combs: 4, mus: [0, 0], ns: [3, 4], ls: [3, 3], ms_combs: [0, 0, 1, -1, 2, -2, 3, -3], ctildes: [-0.36459681924400433, 0.49830063458610907, 0.72919363848800867, -0.99660126917221814, -0.72919363848800856, 0.99660126917221803, 0.72919363848800856, -0.99660126917221803]}
    - {mu0: 0, rank: 2, ndensity: 2, num_ms_combs: 5, mus: [0, 0], ns: [3, 4], ls: [4, 4], ms_combs: [0, 0, 1, -1, 2, -2, 3, -3, 4, -4], ctildes: [-0.031911097291432884, 0.66633789676588706, 0.063822194582865754, -1.3326757935317737, -0.063822194582865754, 1.3326757935317737, 0.063822194582865741, -1.3326757935317735, -0.063822194582865754, 1.3326757935317739]}
    - {mu0: 0, rank: 2, ndensity: 2, num_ms_combs: 6, mus: [0, 0], ns: [3, 4], ls: [5, 5], ms_combs: [0, 0, 1, -1, 2, -2, 3, -3, 4, -4, 5, -5], ctildes: [-0.011326472115596212, -0.18749202985565397, 0.022652944231192424, 0.37498405971130794, -0.022652944231192431, -0.37498405971130799, 0.022652944231192434, 0.37498405971130805, -0.022652944231192431, -0.37498405971130799, 0.022652944231192403, 0.37498405971130755]}
    - {mu0: 0, rank: 2, ndensity: 2, num_ms_combs: 1, mus: [0, 0], ns: [3, 5], ls: [0, 0], ms_combs: [0, 0], ctildes: [-0.44236979474461613, -0.5904473830284529]}
    - {mu0: 0, rank: 2, ndensity: 2, num_ms_combs: 2, mus: [0, 0], ns: [3, 5], ls: [1, 1], ms_combs: [0, 0, 1, -1], ctildes: [-0.70678272960837019, -0.20396492311466741, 1.4135654592167401, 0.4079298462293347]}
    - {mu0: 0, rank: 2, ndensity: 2, num_ms_combs: 3, mus: [0, 0], ns: [3, 5], ls: [2, 2], ms_combs: [0, 0, 1, -1, 2, -2], ctildes: [0.14819534288790484, -0.16561275709669748, -0.29639068577580968, 0.33122551419339497, 0.29639068577580979, -0.33122551419339508]}
    - {mu0: 0, rank: 2, ndensity: 2, num_ms_combs: 4, mus: [0, 0], ns: [3, 5], ls: [3, 3], ms_combs: [0, 0, 1, -1, 2, -2, 3, -3], ctildes: [0.055756995805535184, -0.019473407282623346, -0.11151399161107037, 0.038946814565246693, 0.11151399161107034, -0.038946814565246686, -0.11151399161107034, 0.038946814565246686]}
    - {mu0: 0, rank: 2, ndensity: 2, num_ms_combs: 5, mus: [0, 0], ns: [3, 5], ls: [4, 4], ms_combs: [0, 0, 1, -1, 2, -2, 3, -3, 4, -4], ctildes: [0.046436838030547926, -0.17270541743350623, -0.092873676061095825, 0.34541083486701235, 0.092873676061095825, -0.34541083486701235, -0.092873676061095811, 0.3454108348670123, 0.092873676061095839, -0.34541083486701241]}
    - {mu0: 0, rank: 2, ndensity: 2, num_ms_combs: 6, mus: [0, 0], ns: [3, 5], ls: [5, 5], ms_combs: [0, 0, 1, -1, 2, -2, 3, -3, 4, -4, 5, -5], ctildes: [0.13886116493944858, -0.21919985849032722, -0.27772232987889717, 0.43839971698065444, 0.27772232987889722, -0.43839971698065455, -0.27772232987889728, 0.43839971698065461, 0.27772232987889722, -0.43839971698065455, -0.27772232987889689, 0.43839971698065405]}
    - {mu0: 0, rank: 2, ndensity: 2, num_ms_combs: 1, mus: [0, 0], ns: [3, 6], ls: [0, 0], ms_combs: [0, 0], ctildes: [0.11613380705916866, 0.24815734444579329]}
    - {mu0: 0, rank: 2, ndensity: 2, num_ms_combs: 2, mus: [0, 0], ns: [3, 6], ls: [1, 1], ms_combs: [0, 0, 1, -1], ctildes: [-0.13099356318610134, 1.5805770910740569, 0.26198712637220262, -3.1611541821481128]}
    - {mu0: 0, rank: 2, ndensity: 2, num_ms_combs: 3, mus: [0, 0], ns: [3, 6], ls: [2, 2], ms_combs: [0, 0, 1, -1, 2, -2], ctildes: [0.0021813960826558834, 0.32302932437355603, -0.0043627921653117676, -0.64605864874711205, 0.0043627921653117685, 0.64605864874711227]}
    - {mu0: 0, rank: 2, ndensity: 2, num_ms_combs: 4, mus: [0, 0], ns: [3, 6], ls: [3, 3], ms_combs: [0, 0, 1, -1, 2, -2, 3, -3], ctildes: [0.056450416051520048, -0.16858780698884709, -0.1129008321030401, 0.33717561397769419, 0.11290083210304008, -0.33717561397769413, -0.11290083210304008, 0.33717561397769413]}
    - {mu0: 0, rank: 2, ndensity: 2, num_ms_combs: 5, mus: [0, 0], ns: [3, 6], ls: [4, 4], ms_combs: [0, 0, 1, -1, 2, -2, 3, -3, 4, -4], ctildes: [-0.08203286220994005, 0.18827150645331242, 0.16406572441988004, -0.37654301290662473, -0.16406572441988004, 0.37654301290662473, 0.16406572441988002, -0.37654301290662467, -0.16406572441988007, 0.37654301290662479]}
    - {mu0: 0, rank: 2, ndensity: 2, num_ms_combs: 6, mus: [0, 0], ns: [3, 6], ls: [5, 5], ms_combs: [0, 0, 1, -1, 2, -2, 3, -3, 4, -4, 5, -5], ctildes: [0.066368118595606859, -0.40807079721421952, -0.13273623719121372, 0.81614159442843903, 0.13273623719121375, -0.81614159442843925, -0.13273623719121377, 0.81614159442843937, 0.13273623719121375, -0.81614159442843925, -0.13273623719121361, 0.81614159442843837]}
    - {mu0: 0, rank: 2, ndensity: 2, num_ms_combs: 1, mus: [0, 0], ns: [4, 4], ls: [0, 0], ms_combs: [0, 0], ctildes: [-0.30242300552591911, -0.59493368535516467]}
    - {mu0: 0, rank: 2, ndensity: 2, num_ms_combs: 2, mus: [0, 0], ns: [4, 4], ls: [1, 1], ms_combs: [0, 0, 1, -1], ctildes: [0.058891108542381047, -0.070524411075815571, -0.11778221708476208, 0.14104882215163111]}
    - {mu0: 0, rank: 2, ndensity: 2, num_ms_combs: 3, mus: [0, 0], ns: [4, 4], ls: [2, 2], ms_combs: [0, 0, 1, -1, 2, -2], ctildes: [-0.65334338772034961, -0.15805671911964042, 1.3066867754406994, 0.31611343823928084, -1.3066867754406997, -0.31611343823928095]}
    - {mu0: 0, rank: 2, ndensity: 2, num_ms_combs: 4, mus: [0, 0], ns: [4, 4], ls: [3, 3], ms_combs: [0, 0, 1, -1, 2, -2, 3, -3], ctildes: [0.1557591297598995, 0.77543666759287333, -0.311518259519799, -1.5508733351857467, 0.31151825951979895, 1.5508733351857464, -0.31151825951979895, -1.5508733351857464]}
    - {mu0: 0, rank: 2, ndensity: 2, num_ms_combs: 5, mus: [0, 0], ns: [4, 4], ls: [4, 4], ms_combs: [0, 0, 1, -1, 2, -2, 3, -3, 4, -4], ctildes: [-0.0029345961504118291, 0.050869732987202244, 0.0058691923008236564, -0.10173946597440445, -0.0058691923008236564, 0.10173946597440445, 0.0058691923008236556, -0.10173946597440443, -0.0058691923008236573, 0.10173946597440447]}
    - {mu0: 0, rank: 2, ndensity: 2, num_ms_combs: 6, mus: [0, 0], ns: [4, 4], ls: [5, 5], ms_combs: [0, 0, 1, -1, 2, -2, 3, -3, 4, -4, 5, -5], ctildes: [0.11851362358822336, 0.16346416105320913, -0.23702724717644671, -0.32692832210641826, 0.23702724717644677, 0.32692832210641831, -0.2370272471764468, -0.32692832210641837, 0.23702724717644677, 0.32692832210641831, -0.23702724717644649, -0.32692832210641798]}
    - {mu0: 0, rank: 2, ndensity: 2, num_ms_combs: 1, mus: [0, 0], ns: [4, 5], ls: [0, 0], ms_combs: [0, 0], ctildes: [-0.33029147397171044, -0.081826745714276755]}
    - {mu0: 0, rank: 2, ndensity: 2, num_ms_combs: 2, mus: [0, 0], ns: [4, 5], ls: [1, 1], ms_combs: [0, 0, 1, -1], ctildes: [-0.002485045582529885, -0.94395993035409798, 0.0049700911650597691, 1.8879198607081955]}
    - {mu0: 0, rank: 2, ndensity: 2, num_ms_combs: 3, mus: [0, 0], ns: [4, 5], ls: [2, 2], ms_combs: [0, 0, 1, -1, 2, -2], ctildes: [0.20303042166210397, 0.18898561876772879, -0.406060843324208, -0.37797123753545764, 0.40606084332420811, 0.37797123753545775]}
    - {mu0: 0, rank: 2, ndensity: 2, num_ms_combs: 4, mus: [0, 0], ns: [4, 5], ls: [3, 3], ms_combs: [0, 0, 1, -1, 2, -2, 3, -3], ctildes: [-0.059754081584297944, -0.090683799271560506, 0.11950816316859589, 0.18136759854312101, -0.11950816316859587, -0.18136759854312098, 0.11950816316859587, 0.18136759854312098]}
    - {mu0: 0, rank: 2, ndensity: 2, num_ms_combs: 5, mus: [0, 0], ns: [4, 5], ls: [4, 4], ms_combs: [0, 0, 1, -1, 2, -2, 3, -3, 4, -4], ctildes: [-0.003739743633384732, 0.091513163694314711, 0.0074794872667694615, -0.18302632738862937, -0.0074794872667694615, 0.18302632738862937, 0.0074794872667694598, -0.18302632738862934, -0.0074794872667694624, 0.1830263273886294]}
    - {mu0: 0, rank: 2, ndensity: 2, num_ms_combs: 6, mus: [0, 0], ns: [4, 5], ls: [5, 5], ms_combs: [0, 0, 1, -1, 2, -2, 3, -3, 4, -4, 5, -5], ctildes: [0.18333880438372654, 0.19476968970400488, -0.36667760876745309, -0.38953937940800976, 0.3666776087674532, 0.38953937940800981, -0.36667760876745326, -0.38953937940800992, 0.3666776087674532, 0.38953937940800981, -0.36667760876745276, -0.38953937940800942]}
    - {mu0: 0, rank: 2, ndensity: 2, num_ms_combs: 1, mus: [0, 0], ns: [4, 6], ls: [0, 0], ms_combs: [0, 0], ctildes: [0.80622538197852389, -0.73743933822753038]}
    - {mu0: 0, rank: 2, ndensity: 2, num_ms_combs: 2, mus: [0, 0], ns: [4, 6], ls: [1, 1], ms_combs: [0, 0, 1, -1], ctildes: [-0.12963192277681904, 1.1302724366183949, 0.25926384555363802, -2.2605448732367894]}
    - {mu0: 0, rank: 2, ndensity: 2, num_ms_combs: 3, mus: [0, 0], ns: [4, 6], ls: [2, 2], ms_combs: [0, 0, 1, -1, 2, -2], ctildes: [0.05231044871481845, -0.28020703719790641, -0.10462089742963691, 0.56041407439581281, 0.10462089742963694, -0.56041407439581292]}
    - {mu0: 0, rank: 2, ndensity: 2, num_ms_combs: 4, mus: [0, 0], ns: [4, 6], ls: [3, 3], ms_combs: [0, 0, 1, -1, 2, -2, 3, -3], ctildes: [-0.020591860312854784, -0.54185490314504037, 0.041183720625709568, 1.0837098062900807, -0.041183720625709561, -1.0837098062900805, 0.041183720625709561, 1.0837098062900805]}
    - {mu0: 0, rank: 2, ndensity: 2, num_ms_combs: 5, mus: [0, 0], ns: [4, 6], ls: [4, 4], ms_combs: [0, 0, 1, -1, 2, -2, 3, -3, 4, -4], ctildes: [0.0099406662424263072, -0.22486753832091094, -0.019881332484852608, 0.44973507664182177, 0.019881332484852608, -0.44973507664182177, -0.019881332484852604, 0.44973507664182166, 0.019881332484852611, -0.44973507664182183]}
    - {mu0: 0, rank: 2, ndensity: 2, num_ms_combs: 6, mus: [0, 0], ns: [4, 6], ls: [5, 5], ms_combs: [0, 0, 1, -1, 2, -2, 3, -3, 4, -4, 5, -5], ctildes: [0.011186618449792003, 0.083427549290371203, -0.022373236899584006, -0.16685509858074241, 0.022373236899584009, 0.16685509858074243, -0.022373236899584016, -0.16685509858074246, 0.022373236899584009, 0.16685509858074243, -0.022373236899583985, -0.16685509858074224]}
    - {mu0: 0, rank: 2, ndensity: 2, num_ms_combs: 1, mus: [0, 0], ns: [5, 5], ls: [0, 0], ms_combs: [0, 0], ctildes: [-0.039243897281409541, -0.026251429043170571]}
    - {mu0: 0, rank: 2, ndensity: 2, num_ms_combs: 2, mus: [0, 0], ns: [5, 5], ls: [1, 1], ms_combs: [0, 0, 1, -1], ctildes: [-0.23809845179025041, 1.5079690368311081, 0.47619690358050076, -3.0159380736622157]}
    - {mu0: 0, rank: 2, ndensity: 2, num_ms_combs: 3, mus: [0, 0], ns: [5, 5], ls: [2, 2], ms_combs: [0, 0, 1, -1, 2, -2], ctildes: [0.01979736926802499, -0.44900151355655898, -0.039594738536049986, 0.89800302711311808, 0.03959473853605, -0.8980030271131183]}
    - {mu0: 0, rank: 2, ndensity: 2, num_ms_combs: 4, mus: [0, 0], ns: [5, 5], ls: [3, 3], ms_combs: [0, 0, 1, -1, 2, -2, 3, -3], ctildes: [0.0051734005028759803, 0.0023067045158689653, -0.010346801005751961, -0.0046134090317379306, 0.010346801005751959, 0.0046134090317379306, -0.010346801005751959, -0.0046134090317379306]}
    - {mu0: 0, rank: 2, ndensity: 2, num_ms_combs: 5, mus: [0, 0], ns: [5, 5], ls: [4, 4], ms_combs: [0, 0, 1, -1, 2, -2, 3, -3, 4, -4], ctildes: [0.035214708360901022, -0.51457028956724338, -0.070429416721802029, 1.0291405791344865, 0.070429416721802029, -1.0291405791344865, -0.070429416721802016, 1.0291405791344863, 0.070429416721802029, -1.0291405791344865]}
    - {mu0: 0, rank: 2, ndensity: 2, num_ms_combs: 6, mus: [0, 0], ns: [5, 5], ls: [5, 5], ms_combs: [0, 0, 1, -1, 2, -2, 3, -3, 4, -4, 5, -5], ctildes: [-0.0084416584598366578, 0.4487380198541267, 0.016883316919673316, -0.8974760397082534, -0.016883316919673319, 0.89747603970825363, 0.016883316919673323, -0.89747603970825374, -0.016883316919673319, 0.89747603970825363, 0.016883316919673302, -0.89747603970825263]}
    - {mu0: 0, rank: 2, ndensity: 2, num_ms_combs: 1, mus: [0, 0], ns: [5, 6], ls: [0, 0], ms_combs: [0, 0], ctildes: [0.36010738330811543, -0.13982834871317484]}
    - {mu0: 0, rank: 2, ndensity: 2, num_ms_combs: 2, mus: [0, 0], ns: [5, 6], ls: [1, 1], ms_combs: [0, 0, 1, -1], ctildes: [0.45469522539474805, -1.3819072712812994, -0.90939045078949599, 2.7638145425625984]}
    - {mu0: 0, rank: 2, ndensity: 2, num_ms_combs: 3, mus: [0, 0], ns: [5, 6], ls: [2, 2], ms_combs: [0, 0, 1, -1, 2, -2], ctildes: [-0.076201984687838176, 1.2871686729287046, 0.15240396937567638, -2.5743373458574097, -0.15240396937567641, 2.5743373458574101]}
    - {mu0: 0, rank: 2, ndensity: 2, num_ms_combs: 4, mus: [0, 0], ns: [5, 6], ls: [3, 3], ms_combs: [0, 0, 1, -1, 2, -2, 3, -3], ctildes: [0.0088308857214007136, 0.061691856857863298, -0.017661771442801427, -0.1233837137157266, 0.017661771442801424, 0.12338371371572658, -0.017661771442801424, -0.12338371371572658]}
    - {mu0: 0, rank: 2, ndensity: 2, num_ms_combs: 5, mus: [0, 0], ns: [5, 6], ls: [4, 4], ms_combs: [0, 0, 1, -1, 2, -2, 3, -3, 4, -4], ctildes: [0.013295311625181066, -0.40160267307916003, -0.026590623250362121, 0.80320534615831973, 0.026590623250362121, -0.80320534615831973, -0.026590623250362117, 0.80320534615831962, 0.026590623250362128, -0.80320534615831995]}
    - {mu0: 0, rank: 2, ndensity: 2, num_ms_combs: 6, mus: [0, 0], ns: [5, 6], ls: [5, 5], ms_combs: [0, 0, 1, -1, 2, -2, 3, -3, 4, -4, 5, -5], ctildes: [0.058146353710126386, 0.056868134055836954, -0.11629270742025277, -0.11373626811167391, 0.11629270742025279, 0.11373626811167394, -0.11629270742025281, -0.11373626811167395, 0.11629270742025279, 0.11373626811167394, -0.11629270742025266, -0.1137362681116738]}
    - {mu0: 0, rank: 2, ndensity: 2, num_ms_combs: 1, mus: [0, 0], ns: [6, 6], ls: [0, 0], ms_combs: [0, 0], ctildes: [-0.44282186316925781, 0.11475719655218194]}
    - {mu0: 0, rank: 2, ndensity: 2, num_ms_combs: 2, mus: [0, 0], ns: [6, 6], ls: [1, 1], ms_combs: [0, 0, 1, -1], ctildes: [-0.1607447591790577, -0.23972277797407704, 0.32148951835811534, 0.47944555594815397]}
    - {mu0: 0, rank: 2, ndensity: 2, num_ms_combs: 3, mus: [0, 0], ns: [6, 6], ls: [2, 2], ms_combs: [0, 0, 1, -1, 2, -2], ctildes: [0.058620235317685863, -1.1055488621477134, -0.11724047063537174, 2.2110977242954273, 0.11724047063537177, -2.2110977242954277]}
    - {mu0: 0, rank: 2, ndensity: 2, num_ms_combs: 4, mus: [0, 0], ns: [6, 6], ls: [3, 3], ms_combs: [0, 0, 1, -1, 2, -2, 3, -3], ctildes: [-0.011563217626132622, 0.1091587693856096, 0.023126435252265244, -0.21831753877121921, -0.023126435252265241, 0.21831753877121918, 0.023126435252265241, -0.21831753877121918]}
    - {mu0: 0, rank: 2, ndensity: 2, num_ms_combs: 5, mus: [0, 0], ns: [6, 6], ls: [4, 4], ms_combs: [0, 0, 1, -1, 2, -2, 3, -3, 4, -4], ctildes: [0.026382074727255116, -0.18986767061883619, -0.052764149454510217, 0.37973534123767227, 0.052764149454510217, -0.37973534123767227, -0.052764149454510204, 0.37973534123767222, 0.052764149454510224, -0.37973534123767233]}
    - {mu0: 0, rank: 2, ndensity: 2, num_ms_combs: 6, mus: [0, 0], ns: [6, 6], ls: [5, 5], ms_combs: [0, 0, 1, -1, 2, -2, 3, -3, 4, -4, 5, -5], ctildes: [0.056195316014572165, -0.19960005972278991, -0.11239063202914433, 0.39920011944557982, 0.11239063202914436, -0.39920011944557987, -0.11239063202914437, 0.39920011944557998, 0.11239063202914436, -0.39920011944557987, -0.11239063202914423, 0.39920011944557948]}
    - {mu0: 0, rank: 2, ndensity: 2, num_ms_combs: 1, mus: [0, 1], ns: [1, 1], ls: [0, 0], ms_combs: [0, 0], ctildes: [-2.1056033836928032, 0.31382429092406616]}
    - {mu0: 0, rank: 2, ndensity: 2, num_ms_combs: 2, mus: [0, 1], ns: [1, 1], ls: [1, 1], ms_combs: [0, 0, 1, -1], ctildes: [1.4847597545293598, 0.15156296665470825, -2.9695195090587188, -0.30312593330941645]}
    - {mu0: 0, rank: 2, ndensity: 2, num_ms_combs: 3, mus: [0, 1], ns: [1, 1], ls: [2, 2], ms_combs: [0, 0, 1, -1, 2, -2], ctildes: [-0.90297902265602825, 0.61533377075351947, 1.8059580453120567, -1.2306675415070392, -1.8059580453120572, 1.2306675415070394]}
    - {mu0: 0, rank: 2, ndensity: 2, num_ms_combs: 4, mus: [0, 1], ns: [1, 1], ls: [3, 3], ms_combs: [0, 0, 1, -1, 2, -2, 3, -3], ctildes: [0.67082764659892047, -0.59274198648490062, -1.3416552931978409, 1.1854839729698012, 1.3416552931978407, -1.185483972969801, -1.3416552931978407, 1.185483972969801]}
    - {mu0: 0, rank: 2, ndensity: 2, num_ms_combs: 5, mus: [0, 1], ns: [1, 1], ls: [4, 4], ms_combs: [0, 0, 1, -1, 2, -2, 3, -3, 4, -4], ctildes: [-0.0055500330845368994, 0.08459145145861631, 0.011100066169073795, -0.16918290291723256, -0.011100066169073795, 0.16918290291723256, 0.011100066169073794, -0.16918290291723254, -0.011100066169073797, 0.16918290291723259]}
    - {mu0: 0, rank: 2, ndensity: 2, num_ms_combs: 1, mus: [0, 1], ns: [1, 2], ls: [0, 0], ms_combs: [0, 0], ctildes: [3.4893103930580569, 1.3082035699084507]}
    - {mu0: 0, rank: 2, ndensity: 2, num_ms_combs: 2, mus: [0, 1], ns: [1, 2], ls: [1, 1], ms_combs: [0, 0, 1, -1], ctildes: [-0.31933558188139055, 0.40102436804642605, 0.63867116376278099, -0.80204873609285199]}
    - {mu0: 0, rank: 2, ndensity: 2, num_ms_combs: 3, mus: [0, 1], ns: [1, 2], ls: [2, 2], ms_combs: [0, 0, 1, -1, 2, -2], ctildes: [0.21109425923185787, 1.5861811021252143, -0.4221885184637158, -3.1723622042504291, 0.42218851846371591, 3.1723622042504296]}
    - {mu0: 0, rank: 2, ndensity: 2, num_ms_combs: 4, mus: [0, 1], ns: [1, 2], ls: [3, 3], ms_combs: [0, 0, 1, -1, 2, -2, 3, -3], ctildes: [-0.73520359446158512, 0.39313646878486674, 1.4704071889231702, -0.78627293756973349, -1.47040718892317, 0.78627293756973338, 1.47040718892317, -0.78627293756973338]}
    - {mu0: 0, rank: 2, ndensity: 2, num_ms_combs: 1, mus: [0, 1], ns: [1, 3], ls: [0, 0], ms_combs: [0, 0], ctildes: [4.635633797881364, 1.0780528500916091]}
    - {mu0: 0, rank: 2, ndensity: 2, num_ms_combs: 2, mus: [0, 1], ns: [1, 3], ls: [1, 1], ms_combs: [0, 0, 1, -1], ctildes: [-0.27023545016779332, 0.48858417837687346, 0.54047090033558653, -0.97716835675374669]}
    - {mu0: 0, rank: 2, ndensity: 2, num_ms_combs: 3, mus: [0, 1], ns: [1, 3], ls: [2, 2], ms_combs: [0, 0, 1, -1, 2, -2], ctildes: [0.10717854375310513, -2.429624557571135, -0.2143570875062103, 4.8592491151422701, 0.21435708750621035, -4.8592491151422719]}
    - {mu0: 0, rank: 2, ndensity: 2, num_ms_combs: 4, mus: [0, 1], ns: [1, 3], ls: [3, 3], ms_combs: [0, 0, 1, -1, 2, -2, 3, -3], ctildes: [-0.52192269892526166, 0.46756703911608405, 1.0438453978505233, -0.9351340782321681, -1.0438453978505231, 0.93513407823216788, 1.0438453978505231, -0.93513407823216788]}
    - {mu0: 0, rank: 2, ndensity: 2, num_ms_combs: 1, mus: [0, 1], ns: [1, 4], ls: [0, 0], ms_combs: [0, 0], ctildes: [-1.558394208419581, -1.5698796021814432]}
    - {mu0: 0, rank: 2, ndensity: 2, num_ms_combs: 2, mus: [0, 1], ns: [1, 4], ls: [1, 1], ms_combs: [0, 0, 1, -1], ctildes: [-0.016155680561002153, 5.6487366392344853, 0.032311361122004299, -11.297473278468967]}
    - {mu0: 0, rank: 2, ndensity: 2, num_ms_combs: 3, mus: [0, 1], ns: [1, 4], ls: [2, 2], ms_combs: [0, 0, 1, -1, 2, -2], ctildes: [-0.0996011628141827, 1.181813509080941, 0.19920232562836543, -2.3636270181618824, -0.19920232562836548, 2.3636270181618828]}
    - {mu0: 0, rank: 2, ndensity: 2, num_ms_combs: 1, mus: [0, 1], ns: [1, 5], ls: [0, 0], ms_combs: [0, 0], ctildes: [-1.90741726624966, -0.92808898630832604]}
    - {mu0: 0, rank: 2, ndensity: 2, num_ms_combs: 2, mus: [0, 1], ns: [1, 5], ls: [1, 1], ms_combs: [0, 0, 1, -1], ctildes: [0.057734962059368032, 0.47983150622727494, -0.11546992411873604, -0.95966301245454977]}
    - {mu0: 0, rank: 2, ndensity: 2, num_ms_combs: 3, mus: [0, 1], ns: [1, 5], ls: [2, 2], ms_combs: [0, 0, 1, -1, 2, -2], ctildes: [0.09977124117585795, -1.2575711741240385, -0.19954248235171593, 2.515142348248077, 0.19954248235171598, -2.5151423482480779]}
    - {mu0: 0, rank: 2, ndensity: 2, num_ms_combs: 1, mus: [0, 1], ns: [1, 6], ls: [0, 0], ms_combs: [0, 0], ctildes: [0.28573873972394687, 0.85252983375695923]}
    - {mu0: 0, rank: 2, ndensity: 2, num_ms_combs: 2, mus: [0, 1], ns: [1, 6], ls: [1, 1], ms_combs: [0, 0, 1, -1], ctildes: [-0.02639934867561847, -0.1008460790246056, 0.052798697351236934, 0.20169215804921117]}
    - {mu0: 0, rank: 2, ndensity: 2, num_ms_combs: 1, mus: [0, 1], ns: [2, 1], ls: [0, 0], ms_combs: [0, 0], ctildes: [-6.3936494717079615, 0.48747747225411225]}
    - {mu0: 0, rank: 2, ndensity: 2, num_ms_combs: 2, mus: [0, 1], ns: [2, 1], ls: [1, 1], ms_combs: [0, 0, 1, -1], ctildes: [1.1790124992549049, 1.1261719219699398, -2.3580249985098094, -2.2523438439398791]}
    - {mu0: 0, rank: 2, ndensity: 2, num_ms_combs: 3, mus: [0, 1], ns: [2, 1], ls: [2, 2], ms_combs: [0, 0, 1, -1, 2, -2], ctildes: [-0.45450270736178727, 0.41203931294277979, 0.90900541472357466, -0.82407862588555969, -0.90900541472357499, 0.82407862588555991]}
    - {mu0: 0, rank: 2, ndensity: 2, num_ms_combs: 4, mus: [0, 1], ns: [2, 1], ls: [3, 3], ms_combs: [0, 0, 1, -1, 2, -2, 3, -3], ctildes: [-0.1032435430900005, 2.3246177440207578, 0.206487086180001, -4.6492354880415157, -0.20648708618000094, 4.6492354880415148, 0.20648708618000094, -4.6492354880415148]}
    - {mu0: 0, rank: 2, ndensity: 2, num_ms_combs: 1, mus: [0, 1], ns: [2, 2], ls: [0, 0], ms_combs: [0, 0], ctildes: [4.0101589277913243, 1.5950472047193762]}
    - {mu0: 0, rank: 2, ndensity: 2, num_ms_combs: 2, mus: [0, 1], ns: [2, 2], ls: [1, 1], ms_combs: [0, 0, 1, -1], ctildes: [-0.74105405533221913, 1.9062819847489707, 1.482108110664438, -3.8125639694979405]}
    - {mu0: 0, rank: 2, ndensity: 2, num_ms_combs: 3, mus: [0, 1], ns: [2, 2], ls: [2, 2], ms_combs: [0, 0, 1, -1, 2, -2], ctildes: [0.13188478113078173, 0.35288714720532904, -0.26376956226156345, -0.7057742944106582, 0.26376956226156351, 0.70577429441065842]}
    - {mu0: 0, rank: 2, ndensity: 2, num_ms_combs: 4, mus: [0, 1], ns: [2, 2], ls: [3, 3], ms_combs: [0, 0, 1, -1, 2, -2, 3, -3], ctildes: [-0.14300906640768288, 1.3874258167887876, 0.28601813281536576, -2.7748516335775752, -0.2860181328153657, 2.7748516335775748, 0.2860181328153657, -2.7748516335775748]}
    - {mu0: 0, rank: 2, ndensity: 2, num_ms_combs: 1, mus: [0, 1], ns: [2, 3], ls: [0, 0], ms_combs: [0, 0], ctildes: [-1.6522970880487162, 2.1434042017818249]}
    - {mu0: 0, rank: 2, ndensity: 2, num_ms_combs: 2, mus: [0, 1], ns: [2, 3], ls: [1, 1], ms_combs: [0, 0, 1, -1], ctildes: [-1.7200272843845628, 0.077916418475743016, 3.4400545687691251, -0.155832836951486]}
    - {mu0: 0, rank: 2, ndensity: 2, num_ms_combs: 3, mus: [0, 1], ns: [2, 3], ls: [2, 2], ms_combs: [0, 0, 1, -1, 2, -2], ctildes: [-0.092282489575691976, 1.4494494692125355, 0.18456497915138398, -2.898898938425071, -0.18456497915138401, 2.8988989384250718]}
    - {mu0: 0, rank: 2, ndensity: 2, num_ms_combs: 1, mus: [0, 1], ns: [2, 4], ls: [0, 0], ms_combs: [0, 0], ctildes: [-0.75278865050160459, -3.0463779217357749]}
    - {mu0: 0, rank: 2, ndensity: 2, num_ms_combs: 2, mus: [0, 1], ns: [2, 4], ls: [1, 1], ms_combs: [0, 0, 1, -1], ctildes: [0.16613298143826802, -2.3443312984447129, -0.33226596287653593, 4.6886625968894249]}
    - {mu0: 0, rank: 2, ndensity: 2, num_ms_combs: 3, mus: [0, 1], ns: [2, 4], ls: [2, 2], ms_combs: [0, 0, 1, -1, 2, -2], ctildes: [0.017587797445491167, -0.20155922762499257, -0.035175594890982341, 0.40311845524998519, 0.035175594890982348, -0.4031184552499853]}
    - {mu0: 0, rank: 2, ndensity: 2, num_ms_combs: 1, mus: [0, 1], ns: [2, 5], ls: [0, 0], ms_combs: [0, 0], ctildes: [0.49170801600851483, 3.3200623787792596]}
    - {mu0: 0, rank: 2, ndensity: 2, num_ms_combs: 2, mus: [0, 1], ns: [2, 5], ls: [1, 1], ms_combs: [0, 0, 1, -1], ctildes: [-0.017417746657820123, 0.62371097302181211, 0.034835493315640238, -1.247421946043624]}
    - {mu0: 0, rank: 2, ndensity: 2, num_ms_combs: 1, mus: [0, 1], ns: [2, 6], ls: [0, 0], ms_combs: [0, 0], ctildes: [1.9123780734318283, -1.3220704604882616]}
    - {mu0: 0, rank: 2, ndensity: 2, num_ms_combs: 2, mus: [0, 1], ns: [2, 6], ls: [1, 1], ms_combs: [0, 0, 1, -1], ctildes: [0.063004416366758104, -1.0438006845061414, -0.12600883273351618, 2.0876013690122823]}
    - {mu0: 0, rank: 2, ndensity: 2, num_ms_combs: 1, mus: [0, 1], ns: [3, 1], ls: [0, 0], ms_combs: [0, 0], ctildes: [0.36679416594638981, 3.7182899610193689]}
    - {mu0: 0, rank: 2, ndensity: 2, num_ms_combs: 2, mus: [0, 1], ns: [3, 1], ls: [1, 1], ms_combs: [0, 0, 1, -1], ctildes: [0.60555216921337029, 0.44681647823307513, -1.2111043384267404, -0.89363295646615004]}
    - {mu0: 0, rank: 2, ndensity: 2, num_ms_combs: 3, mus: [0, 1], ns: [3, 1], ls: [2, 2], ms_combs: [0, 0, 1, -1, 2, -2], ctildes: [-0.082565638635958449, 1.6035172627805765, 0.16513127727191693, -3.2070345255611534, -0.16513127727191695, 3.2070345255611539]}
    - {mu0: 0, rank: 2, ndensity: 2, num_ms_combs: 4, mus: [0, 1], ns: [3, 1], ls: [3, 3], ms_combs: [0, 0, 1, -1, 2, -2, 3, -3], ctildes: [-0.02583273949557665, 0.39155917820107738, 0.051665478991153299, -0.78311835640215477, -0.051665478991153292, 0.78311835640215466, 0.051665478991153292, -0.78311835640215466]}
    - {mu0: 0, rank: 2, ndensity: 2, num_ms_combs: 1, mus: [0, 1], ns: [3, 2], ls: [0, 0], ms_combs: [0, 0], ctildes: [0.16419555697054763, 2.0200268694793193]}
    - {mu0: 0, rank: 2, ndensity: 2, num_ms_combs: 2, mus: [0, 1], ns: [3, 2], ls: [1, 1], ms_combs: [0, 0, 1, -1], ctildes: [-0.23637531093508776, 1.1100821823466382, 0.47275062187017541, -2.220164364693276]}
    - {mu0: 0, rank: 2, ndensity: 2, num_ms_combs: 3, mus: [0, 1], ns: [3, 2], ls: [2, 2], ms_combs: [0, 0, 1, -1, 2, -2], ctildes: [-0.076588845779576892, 0.86549713079738699, 0.15317769155915381, -1.7309942615947742, -0.15317769155915384, 1.7309942615947747]}
    - {mu0: 0, rank: 2, ndensity: 2, num_ms_combs: 1, mus: [0, 1], ns: [3, 3], ls: [0, 0], ms_combs: [0, 0], ctildes: [-0.18399247649801173, 1.7256521432056569]}
    - {mu0: 0, rank: 2, ndensity: 2, num_ms_combs: 2, mus: [0, 1], ns: [3, 3], ls: [1, 1], ms_combs: [0, 0, 1, -1], ctildes: [1.6040437035255455, -0.18013239728824534, -3.2080874070510905, 0.36026479457649063]}
    - {mu0: 0, rank: 2, ndensity: 2, num_ms_combs: 3, mus: [0, 1], ns: [3, 3], ls: [2, 2], ms_combs: [0, 0, 1, -1, 2, -2], ctildes: [0.025376079962300013, -0.35167641939722633, -0.050752159924600034, 0.70335283879445276, 0.05075215992460004, -0.70335283879445287]}
    - {mu0: 0, rank: 2, ndensity: 2, num_ms_combs: 1, mus: [0, 1], ns: [3, 4], ls: [0, 0], ms_combs: [0, 0], ctildes: [0.77505513946034066, 2.2135135839622331]}
    - {mu0: 0, rank: 2, ndensity: 2, num_ms_combs: 2, mus: [0, 1], ns: [3, 4], ls: [1, 1], ms_combs: [0, 0, 1, -1], ctildes: [-0.14290099923430691, 1.009776098510939, 0.28580199846861376, -2.0195521970218775]}
    - {mu0: 0, rank: 2, ndensity: 2, num_ms_combs: 1, mus: [0, 1], ns: [3, 5], ls: [0, 0], ms_combs: [0, 0], ctildes: [-0.18905789302864112, -0.2891018931060238]}
    - {mu0: 0, rank: 2, ndensity: 2, num_ms_combs: 2, mus: [0, 1], ns: [3, 5], ls: [1, 1], ms_combs: [0, 0, 1, -1], ctildes: [-0.078870879929399326, 0.76566305010601521, 0.1577417598587986, -1.53132610021203]}
    - {mu0: 0, rank: 2, ndensity: 2, num_ms_combs: 1, mus: [0, 1], ns: [3, 6], ls: [0, 0], ms_combs: [0, 0], ctildes: [-0.39560329039081216, 0.30802902981387886]}
    - {mu0: 0, rank: 2, ndensity: 2, num_ms_combs: 1, mus: [0, 1], ns: [4, 1], ls: [0, 0], ms_combs: [0, 0], ctildes: [1.9601400161317504, 1.2885936027469018]}
    - {mu0: 0, rank: 2, ndensity: 2, num_ms_combs: 2, mus: [0, 1], ns: [4, 1], ls: [1, 1], ms_combs: [0, 0, 1, -1], ctildes: [-0.34130525605782913, 3.710619875590448, 0.68261051211565815, -7.4212397511808943]}
    - {mu0: 0, rank: 2, ndensity: 2, num_ms_combs: 3, mus: [0, 1], ns: [4, 1], ls: [2, 2], ms_combs: [0, 0, 1, -1, 2, -2], ctildes: [0.055321146173118674, -0.53629105093224017, -0.11064229234623736, 1.0725821018644806, 0.11064229234623739, -1.0725821018644808]}
    - {mu0: 0, rank: 2, ndensity: 2, num_ms_combs: 1, mus: [0, 1], ns: [4, 2], ls: [0, 0], ms_combs: [0, 0], ctildes: [-2.0085249318553018, -1.6911984622204144]}
    - {mu0: 0, rank: 2, ndensity: 2, num_ms_combs: 2, mus: [0, 1], ns: [4, 2], ls: [1, 1], ms_combs: [0, 0, 1, -1], ctildes: [0.15422185332082139, -1.9846888516648042, -0.30844370664164272, 3.9693777033296076]}
    - {mu0: 0, rank: 2, ndensity: 2, num_ms_combs: 3, mus: [0, 1], ns: [4, 2], ls: [2, 2], ms_combs: [0, 0, 1, -1, 2, -2], ctildes: [0.084498369003799825, -0.86386435585573107, -0.16899673800759965, 1.7277287117114624, 0.16899673800759971, -1.7277287117114628]}
    - {mu0: 0, rank: 2, ndensity: 2, num_ms_combs: 1, mus: [0, 1], ns: [4, 3], ls: [0, 0], ms_combs: [0, 0], ctildes: [0.9203808167092582, -6.4410276954357393]}
    - {mu0: 0, rank: 2, ndensity: 2, num_ms_combs: 2, mus: [0, 1], ns: [4, 3], ls: [1, 1], ms_combs: [0, 0, 1, -1], ctildes: [0.11278226558347978, 0.52076107020783546, -0.22556453116695954, -1.0415221404156707]}
    - {mu0: 0, rank: 2, ndensity: 2, num_ms_combs: 1, mus: [0, 1], ns: [4, 4], ls: [0, 0], ms_combs: [0, 0], ctildes: [-1.1052583332787811, 4.6233602369722648]}
    - {mu0: 0, rank: 2, ndensity: 2, num_ms_combs: 2, mus: [0, 1], ns: [4, 4], ls: [1, 1], ms_combs: [0, 0, 1, -1], ctildes: [0.0014915453845140937, 0.044531128218838811, -0.0029830907690281865, -0.089062256437677595]}
    - {mu0: 0, rank: 2, ndensity: 2, num_ms_combs: 1, mus: [0, 1], ns: [4, 5], ls: [0, 0], ms_combs: [0, 0], ctildes: [-0.13171471586838279, -0.52784503960847506]}
    - {mu0: 0, rank: 2, ndensity: 2, num_ms_combs: 1, mus: [0, 1], ns: [4, 6], ls: [0, 0], ms_combs: [0, 0], ctildes: [-0.050552539245313034, 0.31106490807372833]}
    - {mu0: 0, rank: 2, ndensity: 2, num_ms_combs: 1, mus: [0, 1], ns: [5, 1], ls: [0, 0], ms_combs: [0, 0], ctildes: [1.8606496336682532, 2.4198574807769737]}
    - {mu0: 0, rank: 2, ndensity: 2, num_ms_combs: 2, mus: [0, 1], ns: [5, 1], ls: [1, 1], ms_combs: [0, 0, 1, -1], ctildes: [-1.0748292586884949, -1.8142661287076896, 2.1496585173769893, 3.6285322574153782]}
    - {mu0: 0, rank: 2, ndensity: 2, num_ms_combs: 3, mus: [0, 1], ns: [5, 1], ls: [2, 2], ms_combs: [0, 0, 1, -1, 2, -2], ctildes: [-0.068017837708446591, 0.64611113417259058, 0.13603567541689318, -1.2922222683451812, -0.13603567541689321, 1.2922222683451816]}
    - {mu0: 0, rank: 2, ndensity: 2, num_ms_combs: 1, mus: [0, 1], ns: [5, 2], ls: [0, 0], ms_combs: [0, 0], ctildes: [-1.2584766632313096, -4.2200408334199038]}
    - {mu0: 0, rank: 2, ndensity: 2, num_ms_combs: 2, mus: [0, 1], ns: [5, 2], ls: [1, 1], ms_combs: [0, 0, 1, -1], ctildes: [0.62387058070960377, 0.97583387355393736, -1.2477411614192073, -1.9516677471078745]}
    - {mu0: 0, rank: 2, ndensity: 2, num_ms_combs: 1, mus: [0, 1], ns: [5, 3], ls: [0, 0], ms_combs: [0, 0], ctildes: [0.34647361160804435, -1.0277764977845272]}
    - {mu0: 0, rank: 2, ndensity: 2, num_ms_combs: 2, mus: [0, 1], ns: [5, 3], ls: [1, 1], ms_combs: [0, 0, 1, -1], ctildes: [-0.10284231252130753, -0.97822109829532766, 0.20568462504261503, 1.9564421965906549]}
    - {mu0: 0, rank: 2, ndensity: 2, num_ms_combs: 1, mus: [0, 1], ns: [5, 4], ls: [0, 0], ms_combs: [0, 0], ctildes: [-0.59073426090907133, -0.8960200143963134]}
    - {mu0: 0, rank: 2, ndensity: 2, num_ms_combs: 1, mus: [0, 1], ns: [5, 5], ls: [0, 0], ms_combs: [0, 0], ctildes: [-0.040204494384698364, -0.66083165731779359]}
    - {mu0: 0, rank: 2, ndensity: 2, num_ms_combs: 1, mus: [0, 1], ns: [6, 1], ls: [0, 0], ms_combs: [0, 0], ctildes: [-3.5972495504466617, 2.0309430649324609]}
    - {mu0: 0, rank: 2, ndensity: 2, num_ms_combs: 2, mus: [0, 1], ns: [6, 1], ls: [1, 1], ms_combs: [0, 0, 1, -1], ctildes: [1.7807171261917081, 0.94615156413081902, -3.5614342523834153, -1.8923031282616376]}
    - {mu0: 0, rank: 2, ndensity: 2, num_ms_combs: 1, mus: [0, 1], ns: [6, 2], ls: [0, 0], ms_combs: [0, 0], ctildes: [1.9921948365356934, 0.67586788304279044]}
    - {mu0: 0, rank: 2, ndensity: 2, num_ms_combs: 2, mus: [0, 1], ns: [6, 2], ls: [1, 1], ms_combs: [0, 0, 1, -1], ctildes: [-1.0575812186204985, 0.80341230226677096, 2.1151624372409965, -1.6068246045335417]}
    - {mu0: 0, rank: 2, ndensity: 2, num_ms_combs: 1, mus: [0, 1], ns: [6, 3], ls: [0, 0], ms_combs: [0, 0], ctildes: [-0.25556179131402884, 0.5928160101855281]}
    - {mu0: 0, rank: 2, ndensity: 2, num_ms_combs: 1, mus: [0, 1], ns: [6, 4], ls: [0, 0], ms_combs: [0, 0], ctildes: [0.87535149377013066, 1.279380510972649]}
    - {mu0: 0, rank: 2, ndensity: 2, num_ms_combs: 1, mus: [1, 1], ns: [1, 1], ls: [0, 0], ms_combs: [0, 0], ctildes: [-4.6129380839090528, -2.1993631822867452]}
    - {mu0: 0, rank: 2, ndensity: 2, num_ms_combs: 2, mus: [1, 1], ns: [1, 1], ls: [1, 1], ms_combs: [0, 0, 1, -1], ctildes: [1.3958164790487284, -1.0337908430236882, -2.7916329580974564, 2.0675816860473759]}
    - {mu0: 0, rank: 2, ndensity: 2, num_ms_combs: 3, mus: [1, 1], ns: [1, 1], ls: [2, 2], ms_combs: [0, 0, 1, -1, 2, -2], ctildes: [-0.13877008264163412, -0.10686535820030724, 0.2775401652832683, 0.2137307164006145, -0.27754016528326836, -0.21373071640061456]}
    - {mu0: 0, rank: 2, ndensity: 2, num_ms_combs: 4, mus: [1, 1], ns: [1, 1], ls: [3, 3], ms_combs: [0, 0, 1, -1, 2, -2, 3, -3], ctildes: [-0.1843374161334847, 1.2386482680343265, 0.3686748322669694, -2.477296536068653, -0.36867483226696934, 2.4772965360686525, 0.36867483226696934, -2.4772965360686525]}
    - {mu0: 0, rank: 2, ndensity: 2, num_ms_combs: 5, mus: [1, 1], ns: [1, 1], ls: [4, 4], ms_combs: [0, 0, 1, -1, 2, -2, 3, -3, 4, -4], ctildes: [0.049408096535153136, -0.72813674338453194, -0.09881619307030623, 1.4562734867690634, 0.09881619307030623, -1.4562734867690634, -0.098816193070306216, 1.456273486769063, 0.098816193070306257, -1.4562734867690637]}
    - {mu0: 0, rank: 2, ndensity: 2, num_ms_combs: 1, mus: [1, 1], ns: [1, 2], ls: [0, 0], ms_combs: [0, 0], ctildes: [-1.4709680277581896, -0.40226472041793443]}
    - {mu0: 0, rank: 2, ndensity: 2, num_ms_combs: 2, mus: [1, 1], ns: [1, 2], ls: [1, 1], ms_combs: [0, 0, 1, -1], ctildes: [1.5905719372916822, -2.679579430336358, -3.181143874583364, 5.3591588606727152]}
    - {mu0: 0, rank: 2, ndensity: 2, num_ms_combs: 3, mus: [1, 1], ns: [1, 2], ls: [2, 2], ms_combs: [0, 0, 1, -1, 2, -2], ctildes: [-0.21260901552636716, -0.11981366699634281, 0.42521803105273437, 0.23962733399268565, -0.42521803105273448, -0.23962733399268574]}
    - {mu0: 0, rank: 2, ndensity: 2, num_ms_combs: 4, mus: [1, 1], ns: [1, 2], ls: [3, 3], ms_combs: [0, 0, 1, -1, 2, -2, 3, -3], ctildes: [0.21881550460777557, -0.56774347320808638, -0.43763100921555115, 1.1354869464161728, 0.43763100921555109, -1.1354869464161725, -0.43763100921555109, 1.1354869464161725]}
    - {mu0: 0, rank: 2, ndensity: 2, num_ms_combs: 1, mus: [1, 1], ns: [1, 3], ls: [0, 0], ms_combs: [0, 0], ctildes: [-0.1452495440132513, -4.4435913756764247]}
    - {mu0: 0, rank: 2, ndensity: 2, num_ms_combs: 2, mus: [1, 1], ns: [1, 3], ls: [1, 1], ms_combs: [0, 0, 1, -1], ctildes: [1.9748914093123702, -2.6663939612785037, -3.9497828186247395, 5.3327879225570065]}
    - {mu0: 0, rank: 2, ndensity: 2, num_ms_combs: 3, mus: [1, 1], ns: [1, 3], ls: [2, 2], ms_combs: [0, 0, 1, -1, 2, -2], ctildes: [0.23504566589570389, -3.7462247542292335, -0.47009133179140783, 7.4924495084584679, 0.47009133179140794, -7.4924495084584706]}
    - {mu0: 0, rank: 2, ndensity: 2, num_ms_combs: 4, mus: [1, 1], ns: [1, 3], ls: [3, 3], ms_combs: [0, 0, 1, -1, 2, -2, 3, -3], ctildes: [-0.034817292840685257, 1.1518254549557043, 0.069634585681370514, -2.3036509099114086, -0.069634585681370514, 2.3036509099114082, 0.069634585681370514, -2.3036509099114082]}
    - {mu0: 0, rank: 2, ndensity: 2, num_ms_combs: 1, mus: [1, 1], ns: [1, 4], ls: [0, 0], ms_combs: [0, 0], ctildes: [3.2602881767815841, -0.23396241697317005]}
    - {mu0: 0, rank: 2, ndensity: 2, num_ms_combs: 2, mus: [1, 1], ns: [1, 4], ls: [1, 1], ms_combs: [0, 0, 1, -1], ctildes: [0.99924404570100578, -0.380368160916634, -1.9984880914020113, 0.76073632183326778]}
    - {mu0: 0, rank: 2, ndensity: 2, num_ms_combs: 3, mus: [1, 1], ns: [1, 4], ls: [2, 2], ms_combs: [0, 0, 1, -1, 2, -2], ctildes: [0.058461657918853001, -0.92950017888680414, -0.11692331583770602, 1.8590003577736085, 0.11692331583770604, -1.8590003577736089]}
    - {mu0: 0, rank: 2, ndensity: 2, num_ms_combs: 1, mus: [1, 1], ns: [1, 5], ls: [0, 0], ms_combs: [0, 0], ctildes: [0.78339924116617399, -2.4877886648324989]}
    - {mu0: 0, rank: 2, ndensity: 2, num_ms_combs: 2, mus: [1, 1], ns: [1, 5], ls: [1, 1], ms_combs: [0, 0, 1, -1], ctildes: [0.16317275017112257, 1.1785255516517723, -0.32634550034224508, -2.3570511033035442]}
    - {mu0: 0, rank: 2, ndensity: 2, num_ms_combs: 3, mus: [1, 1], ns: [1, 5], ls: [2, 2], ms_combs: [0, 0, 1, -1, 2, -2], ctildes: [0.050719326594502699, -0.78840247073368497, -0.10143865318900541, 1.5768049414673702, 0.10143865318900543, -1.5768049414673704]}
    - {mu0: 0, rank: 2, ndensity: 2, num_ms_combs: 1, mus: [1, 1], ns: [1, 6], ls: [0, 0], ms_combs: [0, 0], ctildes: [-0.40980884038289062, 1.3969653608277863]}
    - {mu0: 0, rank: 2, ndensity: 2, num_ms_combs: 2, mus: [1, 1], ns: [1, 6], ls: [1, 1], ms_combs: [0, 0, 1, -1], ctildes: [-0.20020129279678633, 2.7987590286814354, 0.40040258559357256, -5.59751805736287]}
    - {mu0: 0, rank: 2, ndensity: 2, num_ms_combs: 1, mus: [1, 1], ns: [2, 2], ls: [0, 0], ms_combs: [0, 0], ctildes: [5.2816849199413358, 2.7215154529683878]}
    - {mu0: 0, rank: 2, ndensity: 2, num_ms_combs: 2, mus: [1, 1], ns: [2, 2], ls: [1, 1], ms_combs: [0, 0, 1, -1], ctildes: [-1.5953525290679256, -5.1590395855053366, 3.1907050581358503, 10.318079171010671]}
    - {mu0: 0, rank: 2, ndensity: 2, num_ms_combs: 3, mus: [1, 1], ns: [2, 2], ls: [2, 2], ms_combs: [0, 0, 1, -1, 2, -2], ctildes: [0.016131123703342784, 1.2256667976466551, -0.032262247406685568, -2.4513335952933102, 0.032262247406685575, 2.4513335952933111]}
    - {mu0: 0, rank: 2, ndensity: 2, num_ms_combs: 4, mus: [1, 1], ns: [2, 2], ls: [3, 3], ms_combs: [0, 0, 1, -1, 2, -2, 3, -3], ctildes: [0.044143112292839876, -1.8073948742442998, -0.088286224585679751, 3.6147897484885996, 0.088286224585679737, -3.6147897484885991, -0.088286224585679737, 3.6147897484885991]}
    - {mu0: 0, rank: 2, ndensity: 2, num_ms_combs: 1, mus: [1, 1], ns: [2, 3], ls: [0, 0], ms_combs: [0, 0], ctildes: [1.8425147589609989, 0.87335522481541872]}
    - {mu0: 0, rank: 2, ndensity: 2, num_ms_combs: 2, mus: [1, 1], ns: [2, 3], ls: [1, 1], ms_combs: [0, 0, 1, -1], ctildes: [0.10757717746984016, -2.1576942332291678, -0.21515435493968027, 4.3153884664583346]}
    - {mu0: 0, rank: 2, ndensity: 2, num_ms_combs: 3, mus: [1, 1], ns: [2, 3], ls: [2, 2], ms_combs: [0, 0, 1, -1, 2, -2], ctildes: [-0.0064172862389529958, 0.053603692726993286, 0.012834572477905993, -0.10720738545398659, -0.012834572477905997, 0.1072073854539866]}
    - {mu0: 0, rank: 2, ndensity: 2, num_ms_combs: 1, mus: [1, 1], ns: [2, 4], ls: [0, 0], ms_combs: [0, 0], ctildes: [-2.6992361106502498, 2.1827219425627007]}
    - {mu0: 0, rank: 2, ndensity: 2, num_ms_combs: 2, mus: [1, 1], ns: [2, 4], ls: [1, 1], ms_combs: [0, 0, 1, -1], ctildes: [-0.48624818249329299, -1.201455507203175, 0.97249636498658587, 2.4029110144063495]}
    - {mu0: 0, rank: 2, ndensity: 2, num_ms_combs: 3, mus: [1, 1], ns: [2, 4], ls: [2, 2], ms_combs: [0, 0, 1, -1, 2, -2], ctildes: [-0.019904531566660635, 0.30328410372785641, 0.039809063133321276, -0.60656820745571283, -0.03980906313332129, 0.60656820745571305]}
    - {mu0: 0, rank: 2, ndensity: 2, num_ms_combs: 1, mus: [1, 1], ns: [2, 5], ls: [0, 0], ms_combs: [0, 0], ctildes: [-0.46417100373382036, -2.7011837599640565]}
    - {mu0: 0, rank: 2, ndensity: 2, num_ms_combs: 2, mus: [1, 1], ns: [2, 5], ls: [1, 1], ms_combs: [0, 0, 1, -1], ctildes: [-0.12428530251206424, 0.72892152055973281, 0.24857060502412845, -1.4578430411194654]}
    - {mu0: 0, rank: 2, ndensity: 2, num_ms_combs: 1, mus: [1, 1], ns: [2, 6], ls: [0, 0], ms_combs: [0, 0], ctildes: [1.6766621146967298, 2.8688289003737735]}
    - {mu0: 0, rank: 2, ndensity: 2, num_ms_combs: 2, mus: [1, 1], ns: [2, 6], ls: [1, 1], ms_combs: [0, 0, 1, -1], ctildes: [0.043408873676627491, -0.80608611102235095, -0.086817747353254968, 1.6121722220447017]}
    - {mu0: 0, rank: 2, ndensity: 2, num_ms_combs: 1, mus: [1, 1], ns: [3, 3], ls: [0, 0], ms_combs: [0, 0], ctildes: [-0.83687842525172762, 2.2657460113481278]}
    - {mu0: 0, rank: 2, ndensity: 2, num_ms_combs: 2, mus: [1, 1], ns: [3, 3], ls: [1, 1], ms_combs: [0, 0, 1, -1], ctildes: [-0.1016377786707221, 3.9690102663653795, 0.20327555734144417, -7.9380205327307571]}
    - {mu0: 0, rank: 2, ndensity: 2, num_ms_combs: 3, mus: [1, 1], ns: [3, 3], ls: [2, 2], ms_combs: [0, 0, 1, -1, 2, -2], ctildes: [-0.012232076600666313, 0.16687233446839342, 0.02446415320133263, -0.33374466893678689, -0.024464153201332637, 0.33374466893678695]}
    - {mu0: 0, rank: 2, ndensity: 2, num_ms_combs: 1, mus: [1, 1], ns: [3, 4], ls: [0, 0], ms_combs: [0, 0], ctildes: [1.149997493605271, 1.5147758460468961]}
    - {mu0: 0, rank: 2, ndensity: 2, num_ms_combs: 2, mus: [1, 1], ns: [3, 4], ls: [1, 1], ms_combs: [0, 0, 1, -1], ctildes: [0.13016053538600936, 1.0536415603095926, -0.26032107077201866, -2.1072831206191847]}
    - {mu0: 0, rank: 2, ndensity: 2, num_ms_combs: 1, mus: [1, 1], ns: [3, 5], ls: [0, 0], ms_combs: [0, 0], ctildes: [-1.6958814922068948, 0.041125554074044786]}
    - {mu0: 0, rank: 2, ndensity: 2, num_ms_combs: 2, mus: [1, 1], ns: [3, 5], ls: [1, 1], ms_combs: [0, 0, 1, -1], ctildes: [0.065451684470023225, -0.80319806159917062, -0.13090336894004645, 1.606396123198341]}
    - {mu0: 0, rank: 2, ndensity: 2, num_ms_combs: 1, mus: [1, 1], ns: [3, 6], ls: [0, 0], ms_combs: [0, 0], ctildes: [2.1518478787823581, -3.5190279360226477]}
